1.264883619039218, -0.7141645179576288, -0.04481578893647724, -0.010115208838337372, -0.31761100117387664, 0.9629294077161437, 1.830812455318181, 1.4974120196642682, 0.3024704138310098, -0.09613193339152822, -0.41137529250971533, 1.5588184863040515, 3.620823880349517, 0.12283706690285166, -2.353028854409863, 0.44006343238622125, -1.802674402480103, 0.2923148694302459, -2.270764509101392, 1.232187322415367, 0.4162966929552728, 1.986629061715721, -1.981974017783548, -0.5150303693160236, 0.8252972939979123, 1.5874341389922497, 0.5210143245518694, -0.2698687569753195, -0.209065838208864, -0.6139443521398674, 0.17038628968363437, -0.777242262812975, 1.6265897364735333, 1.4977580882614967, 0.3405636047524191, 2.0459870090218355, -0.42041624320830173, -0.14572978533853612, 0.573292386317678, 1.4279930588363245, 0.2177329604480162, -0.6077202388515869, 0.41602251628908143, -0.672465578138712, 0.5336551324479024, -0.4854577249315992, -2.0140199714633042, -0.5908948204657659, 0.15317443114043044, 0.8992869175306709, -0.10486866056859499, 0.5883991708480717, 0.23348354465173524, 2.3535055308399864, -1.2977337866724898, 1.6626772893548079, -0.1482945322243105, 0.16075534028645144, 0.49681894400073423, -0.2611483303047606, 0.9542004644737546, 0.6225844534643629, -0.2778048428363485, 1.3114459227224713, 0.4778441693959852, -0.6120106829111484, -1.6643719406872932, 0.9602291282998695, -0.09466190117313474, 1.1715072360310812, -0.6175899987203805, -0.7840922902839893, -0.6961416778830076, 0.28310593288407426, -0.6483274121632989, -0.8801713938026856, 0.6977577494398288, -0.4527018283788374, 0.29534667665976494, -0.09442485633953586, 1.4525022376914938, -1.8689192875206768, 1.293799847920531, 0.5871038992682176, -0.2913554258595532, -0.29902134412962544, -0.16613505195759234, -1.0964149584607985, -0.3598324592086077, -1.237954617832432, 1.4256011365569956, -2.2666424218046473, 0.003968675151573233, 0.8573213053922873, -1.0800853196665308, 0.364001719780398, -0.09804458483600213, -0.08141173250950362, -0.24394929220131234, 0.7906333699348884, -0.5674593501789625, 0.09203663807371809, 1.0457205578838369, -0.977630654384143, -0.3930262302263641, 0.812101867166545, -1.6615998704118993, 1.9657549860328964, -1.6478133331364584, -0.41504692548688876, 0.1568993165133249, -1.1272621824267783, 0.4661473776897071, 1.0523282099584106, 0.3579190425421321, 0.8307730820369931, 0.36726188750003497, 0.431086298126567, -0.033888164695737605, 1.043481092164616, 1.733592524513752, 1.9211619355334222, -1.0446180139413188, 0.3981292588498015, 1.031769303354789, -0.5082586693039524, 0.09346271383130818, -0.13994153179307406, -0.3294730233507457, -0.7005064042934679, 0.038434189600874, -1.0511814523208574, 2.015960857173841, 1.7572833789607203, 0.0021148473527578485, 0.9836726009291639, 0.5079045325522414, -1.691217072529896, -0.14454964611891105, -1.6759240995529983, -3.601962959878024, -0.9781108709698174, 1.5833550056607955, 0.12237521265005788, -0.09502260151314956, 0.8810571687613281, -0.6660491553698928, -2.3635869580253384, 1.410894715127989, 0.20866436691383858, 2.0680455107796027, 1.4960580377572148, -0.9393137494692072, 0.08167715384421995, 1.2673426733728421, -0.5304687460430232, 0.7205751993187702, -1.0829702656641857, -0.07265426168166282, 0.5979335839310325, 0.15815514333441555, 1.7111437907616973, -0.675139673238712, 0.388064397477375, -0.23852894451496368, 0.8126481288665421, -0.1604011943048782, 0.46719141971049793, -1.0229681224964926, 0.6923870359008042, -1.512064563774457, -0.6346376870820221, 1.7475040508917674, 2.0727099866334493, 0.12121908859365098, 1.7374323369003997, 1.6616936543324032, 1.106787070737191, 1.2442499217911924, -0.9815555611370688, -1.4333857592854802, 0.8541384714920602, -0.40498123915307827, -0.4170711362766014, -1.148680054247772, -0.02587943451048279, -1.595472030026364, 0.16433006545493545, 0.8610072747917182, -0.4867610753803227, -0.6100647556409365, -0.7899183004612843, 1.0119272125091445, 0.40074180893731315, 0.237767708330525, -0.37817752146765726, 0.7435301796782335, -0.7388045334579095, -0.30477113505951103, 0.8700359450781486, -0.11755094150748442, -0.9203751210347693, 0.22821588158943046, 0.46323679182375005, -0.16141557305844045, -0.005896689839018731, 1.00954710331156, -1.2449925451521748, 0.21767814503836086, -0.10751750904549624, -1.4731283375409354, -0.27159145267031354, 0.10528770907950444, 0.2879177372832659, -0.6135289934606872, 2.0516049887189074, -0.059267496714727114, 0.06831215882390909, -1.6308245547991753, -0.014893093781450054, 1.4028945486018323, -0.10819280681635775, -0.3862388591812764, 1.83235369971513, 1.5507499309600379, 0.7946605026414475, 1.2911047147163608, 0.402213069196953, 2.1954747115625137, 1.1874666412671055, 1.7746311560184416, -0.9095379367849012, -0.5061725302959631, 0.03132763465024235, 1.8753098419589993, 0.8516087641777564, -1.6746067877998845, -0.27712867640981315, -0.2656813706009547, -0.7774776484789355, 1.480556871561555, 0.5224820301676564, 0.802834983124852, -0.5056546243384359, -1.349119369666356, -0.41492042926278766, -0.6098921540449919, -0.6960901426937505, -0.157213966002034, 1.4641404969643794, 0.2534187134147996, 0.25692759205610416, -1.5792481750837224, -1.5666004242756197, 0.26173567361477035, 1.2861247107884446, -1.9290162115494884, 0.35887745689475875, 2.199832847919557, -0.04744052888502135, -0.6449188576967723, 0.7017915557743301, -0.8306744462714879, -0.790259731161109, -0.0515084962961001, 0.8970109210491198, -1.064284550321571, 0.4040597037636414, 0.14834553451364946, 0.9306235342085711, 1.6619686076909943, -1.0971647574263723, -1.5137230000951367, 0.64022985641045, 0.6907711423454567, 0.6039434388248193, 0.627900206851765, -0.040975617048988895, 2.447719953269643, 1.8342976851547157, 0.688906200131696, 0.8343838664212971, -0.2872223490890348, -0.4499804243677816, -1.429539374664002, 0.08019224672174792, -0.3096906924273951, -0.17673795542973877, -0.050966503651877236, -0.16061593372243868, -1.8597106968369361, 0.88773224020484, -0.5797355728759052, -2.442090365968852, -0.39535926408893807, -0.7026085510230183, 0.8193699561288468, 2.6284167790031665, 1.8147254649339193, 0.4304052224148328, -1.851501228793015, -1.0431936292178254, -0.7016763683981464, -1.4065908488962677, -0.26350975340502364, -2.70985485671707, -1.3054547075750214, 0.1402105937867293, -0.7244423395338246, 1.1792604131548006, -1.4964237680806702, 0.08135612082759525, -0.20296409440085125, 0.0622995415920856, 1.52783937267004, 0.004016679106687186, -0.2383781828633843, 1.4009749776032112, 0.5485185711043159, -0.09800936404607123, 2.214033943494239, 0.5415408737865103, -0.4738754416628538, -0.8753755313142707, -0.5679867319191824, 2.404900932347397, 1.9375692648200253, 1.115103355798109, -0.7774478507998938, -0.42192139055609895, -1.1724254423697091, -1.205482074535138, -1.8580615720945046, 1.3109289205921657, 0.5199509062592325, 1.0760611846461317, 0.07927118627998801, 0.7391472981120079, -0.5299924628867599, -0.555057474017245, -0.13161899791677667, -0.03528259925911677, 0.7582855270462647, 0.5828326824384911, -1.2163822504706905, 1.6036209511739108, 0.38765475396411225, 0.14326391963410232, 0.7017014588260858, 0.8171255584269949, -0.3754779219159436, -0.07990630771706776, -1.0173789347461266, 1.6818879395721618, 1.8157794416548405, 1.5056343081343226, -1.9578491485249823, 1.7535634003654048, -0.7146003798583023, -1.2325851888634627, -0.7234778801126772, 0.7525937870251898, 2.1299027570024993, 0.1664285086712428, 0.11311148791871503, -0.17416176227814806, 0.5674844911369414, 2.3724445405973755, 0.01103446360288773, 0.9078459906733052, 0.28346281157507536, 0.3666288513985865, 0.3594632856044403, 0.4101560676439905, 0.17777103757653587, 1.790292127962891, 2.2111404811829605, 1.0919000176881888, -0.9738198307353189, -1.486880153054151, 1.6578527328164858, 0.8757279317113019, 1.8686560513897463, -0.2747865852377096, 2.7616789895432152, -0.9230651185429161, 0.6222336115851277, -0.5137850481844203, 0.9581529887249735, 1.6198232996091304, 1.3030088379483558, -0.7496241744986817, -1.8503900270027323, 0.7004585048436097, -0.6169891738989467, -0.2534802995246906, -1.0625516885620108, -0.6669905703805182, -0.6330420907875595, 2.454882776088482, 0.835007560136364, -1.2897202741015228, 0.3823623596625069, 1.1197885655849011, 2.5050423737876084, 0.5478103758002894, 0.5780429016422804, -0.8146431675971817, 0.3423991194227384, 1.2926339205995478, 2.896908732353446, 0.34910644600495394, 0.7646208428155062, 1.2252008887999437, 0.18094755021960582, -0.9696050773349992, -1.1584710164496412, -0.12129648136977016, 2.2882461551676014, -0.22077903994335266, 0.3047983051821823, 1.0323123333474435, -0.786013582335612, 0.4325475435238081, -1.651227851072014, -0.7420021204603997, -2.1815391935819597, 0.39687111415135046, 1.5798385301048048, -0.6173045989375824, 0.6513526256854056, 1.610917501145578, 2.169398425936608, 1.08720345510798, -0.5343979712999497, 1.1416831266850442, 0.027689487046614426, 1.4122588976342405, 1.2388928154689915, 0.9908713496353118, -1.2099475301181426, 0.2675965975786057, 0.6919549376136496, -2.6119438070394625, 0.7093245729954047, -0.09610557145593211, 0.2035918676506696, 0.07394746084347155, -0.17884499613185775, 1.8162443687827783, -1.0247303394158727, 0.8002194662561327, -1.6242285228101416, -1.2579721630236795, -0.5375477834156998, -0.016068785937737123, 0.8889262184701135, -2.0426400927424337, 0.5659549421561483, 1.1280720265428688, 3.079751279950546, 0.5830025646386057, -2.027564118358409, 0.7708919626986931, 0.8919241603888967, 1.9061518983607122, 2.2222043854805666, 1.4459661511333743, -1.0528799171999632, -0.6276213229755907, -0.0727876501209135, -2.070395181352927, -1.0301911032021467, 1.0339819722331638, 0.5869334342925123, -1.2177975329736468, 0.44287945958270025, -0.27149462450540635, -0.4438046287500575, 1.0610041248293214, 0.6745518050220607, 0.49827823590273124, 0.6523247248197492, -1.4368619235702906, 1.207729211131384, 2.033528181075995, 0.354722586156622, 0.4933158185926165, 1.9975641691495123, 0.5669465285642048, -1.159298979649156, 0.3819437007448982, 1.0552370765552526, 0.36285062916284133, 1.1672265277790959, -0.2741889427904367, 1.1088137549997525, -1.441057635183352, 0.6190679688160048, -1.2255816407538662, 0.4685201233767334, 1.4123169195133185, -0.28787614002546946, 0.798008940329748, 0.0783904827886566, 0.75281015494586, -0.14940453033026466, 0.9260745288613721, 0.20129750334804342, -0.7975791547785045, 0.308209434221321, -0.7956674197459475, 0.38066227569551636, 0.7455074188246843, 1.2824553774659124, 1.0310024659224828, 1.6900466512984063, 2.3297581908637697, -0.7218851521085422, -0.9241329031161192, 0.562787116021741, 0.6586132839526503, 0.6081035757008956, 0.5164599812888082, -1.4985290083266325, -0.3413922073383394, -1.3621439568359537, 1.2938045077307383, 1.0463491644445888, -1.271853020821648, -1.1936261656303977, 1.883634150852176, -0.5627465029033357, -1.0322033429051445, -1.9409994098832688, -0.45716231459851936, 1.2404142354986887, 1.1211567120305392, -0.7774262049218926, -0.8725046483018615, 1.1149464363716186, -0.20980317974820462, -0.556538007544083, 1.3042217387724613, -0.23555283861953666, 0.22922453970526543, 0.8464356775837943, 0.1077693614152291, -0.9386697185810184, 1.3450645994208499, -1.5172442325632385, 0.9132173975507868, -0.6421783730748196, 0.4852667625115567, -0.5316462366445502, 0.5452051686057098, 0.2192826571671373, 0.006150563665884395, -0.11825798618952994, -1.2604731023485143, -0.03357394648750906, -0.7207417172184398, 1.2023733223111783, -0.17734729477477237, 1.130328358853505, 1.9237670625964258, -1.1131410038103458, -0.1998691914397932, 0.36381313918847347, 0.24748338959040467, -0.24221946240411504, 0.6518030054553309, -0.06060267670952499, 0.47907143626466725, -1.2017503855742835, -1.6126064785775027, -1.6054117444412577, -0.38485041169123263, 0.10315079749282664, -1.0512496844577193, -1.5678308046767866, 0.17444287140622455, 1.3784714620174396, -0.7823822481144692, 0.20999502613321477, -0.6207715522389967, -0.5573134759488021, 0.8808893970984285, 0.688829839033279, -1.825439004395768, 0.9947931877629439, 0.34987542411690975, -0.2653640765365948, -1.0194634026406175, -0.2304361116694537, 0.7410762632374658, 0.32231286063391695, 0.5739510701030587, -1.3565470323699191, -0.6940996633520797, 1.9567304390342377, -1.6861741026260604, 0.36774572711038167, 0.07665912092053541, -0.5545372635107813, 2.2239278041204216, 0.09855145670574678, 1.3782010980644546, 0.21467972732025614, -1.6220813998856958, 0.7332585392231186, 0.07656741697309911, 1.4476160275599181, 1.8528242393711143, 0.8087430101087054, 0.6613667056097203, -0.6259211033218397, 0.5175623933446534, 0.584587415571685, 0.5400567187515629, 0.8594187341911972, 1.5721349580902846, 1.69530014789002, -1.2615297299628856, 1.2717588489315823, -1.5165932030498297, -0.9183083927771931, -0.8668587919681232, -0.8325851639300492, 0.9831388562989745, -0.16463294103850387, -0.6427683348864596, -0.6561274844631806, -2.3118197214122054, 0.3759268659231166, -1.3961323524499787, 1.067808642240736, 0.23564245506883966, 1.1756787655006482, 0.14048404773960205, 0.7895936599169445, -0.2837591643008643, 0.35254511185969994, 0.18931204656706518, -0.6616113100562032, -0.1689636988235701, 0.9382314968302221, -0.5159622945757749, 0.9092752780349005, -0.36858795100825414, 1.6478534194293202, 2.2568678125885526, -0.1029918580689659, 2.4134533049773563, -1.4020019915050368, 1.3263768960960223, -0.28405890668017564, 0.7472953224717735, 0.12453825926816998, 0.1734526255029912, -0.20836438981954344, -0.3666962869014066, -1.4635238304152571, -0.06828024074791013, -0.18603672454086742, -1.0603774571924987, 1.8389756239906068, -0.6755699893568237, -0.0070929989768644, 0.6794527899131022, 1.9437416772218787, -0.252670016423679, 0.8581848474471071, -0.4715511287708945, -0.823354132571096, 0.630727138353826, 1.1722358712213776, -0.1648781999381571, 0.41828055764144073, 0.6904787624885813, 0.37766372341714105, 0.9167993252894338, 0.7961591351563133, 2.1809943631549547, 0.11732127650274338, 3.6148811101703777, -0.43875898217803044, 1.1275176382008567, -1.633894844785629, -0.9528259201328393, -0.34546992118944925, -0.1499529111452004, -0.02983136118758438, 2.001386325603949, -0.7234097293589619, 1.1312077333503516, -1.043618910975399, 0.687452760349328, 0.3374154690033329, 0.9686851786716897, -0.24676638715490526, 1.8919359270351006, -0.05581636397586991, -0.33958011604098326, 2.0991979841530517, -0.8362367774924798, -0.16597526498062357, 0.04348629487309808, -0.9194418759371159, 1.9441209395870243, 0.7406045236329998, 0.6879108473522605, 0.7259271736841368, -0.5706680371071983, -0.3909149494450031, 2.6048101028812645, 2.2031056659055603, -0.49196224822770807, 0.8180706061802828, 1.1067386359787832, 0.9210772857258125, 0.36555770283469163, -1.0282141547475778, 0.07383306062244382, -0.7645126162951258, -2.399336158804856, -0.7578293336608776, 0.15044227593599205, -0.7952986488126973, -2.9274922409120796, -0.26061421867913215, 0.7839809563036735, 0.5423518921644878, 0.6476848976519579, -0.6463353815573213, 0.04063845171830441, 0.8322692168401798, -0.25223626227966084, 0.45133596151089816, -1.3410659418800253, 0.5771104942010138, -1.0890879938353875, 1.0840036018902417, 2.16471538890266, 0.03755702199970669, -0.15984118513877277, -2.2110284428886047, -0.6514043233953752, -0.2538932292386558, -1.60475143269388, -0.12691555786907066, -1.0339041259374326, -1.087418456191164, 0.4483558901992273, -0.3909552681407143, 0.8899276555341258, -0.6981189446642441, 0.10081105136790681, -0.22232551264296294, 0.7338662815360867, 0.34984385809486557, 0.2781684811963557, 0.8528898349472306, -1.375956392130286, 0.6354696005253969, -1.161595573284117, 1.281500550244105, -0.85742975999123, 0.8409337762446772, 1.5725840622256662, 0.13049162857243196, 0.12312586287478941, 1.9076651955039203, -2.1479954265006045, -0.33144143131833986, -0.11180541460555597, -1.2291802410576105, -0.011501064393337018, 0.5044790049387929, -0.9600917026429159, -1.318641275916585, 0.8167210139621867, 1.2336478244244018, 0.3547266237801237], [-1.4039163248434188, -1.1615147013960785, 0.12719528203605027, 0.29026267124434224, 0.5348426920741022, 1.027736841837172, 2.1988528445550886, -1.2600087138987024, 0.9419765568281373, 1.2283523516634927, -0.7918554345070913, 2.0870985473005055, -0.9546780853404103, 0.9854209407303361, -0.47070824820103063, 2.320193471513932, -0.5061582272970413, 0.8247130446716548, -0.04370682347126204, -0.6236755452839994, -0.7649515236527789, -1.0996762667166813, -0.9780561216718315, 0.20268554510348408, 1.8350019497763224, -0.5429018796967017, -0.21059196461689836, 0.15798455939517766, 0.09907064995801793, -0.4567279304190225, 1.1176806835420954, -1.4059303118089967, 0.27004605297428763, -0.37522284203907597, 1.1516074624252852, 0.10453873713172776, -1.4519710200315945, 0.12573878012210044, -0.6509091585067568, 1.872602736426377, 0.2302442251693003, -0.04396511145137466, -1.749591183743348, 1.687584902358025, 0.21524080940912615, 0.345688089960173, 0.3138197316338616, 0.5281995175071821, -0.4205232660820523, 0.23924179929684442, 0.6969704451589334, 0.8067407996056786, -1.0583856885064808, -1.763279045380494, 2.936065426262142, -1.0497937502653993, -0.5076962160032449, -0.9368643959225366, 2.3701667344057316, 0.26323277091266206, -0.12271963510706285, 0.57967127561414, -1.4913217737434765, -0.1276334210554946, 0.755862454796985, -1.02889866481087, -0.8123324147609994, 0.3122102623737173, -0.923703373688876, -0.12419755778837899, -0.8837895083072788, -0.6398576991162612, -0.8379901249184162, -1.9060612864327382, -0.17301991658789695, -0.7193280289206979, -0.5481537556959045, -0.17865725203931831, -0.11427928457870462, 0.5074560808690696, -1.0082759411417304, -0.16564828662780098, -0.10742910147575142, 0.2650768889452957, 0.9632818963298782, 1.3268611070059575, 0.2078610630881243, -0.3310649174613253, 1.7592901476426044, 0.4697888792556677, -0.13324671161675103, -1.4011857820753193, -0.1448479830368843, -0.9708325627942619, 0.784017218050165, -0.9467377383339354, -0.9452307967340297, -0.781259979507323, -1.3277695914078937, -2.9893204723687106, -0.7595341967360544, 0.12044722191748429, -0.4681523794081062, 0.7237132772477214, -0.42541475628930564, -1.1053384924895997, 0.2963872231594748, -0.49989326897091685, 1.096757238306602, 0.8811669704437954, 1.4533655276968978, 0.6927197929474836, -0.4171357123301559, 1.1786808860305855, 0.8409544239098662, -0.3156639185332768, -0.1415263747453884, 0.044780787495718274, -0.21911929540228303, -1.2410052484002756, 1.6964043670922322, 0.08512614159865352, -1.0958926281454686, -0.9711047643238914, -1.5720348010254444, -1.5241892404875323, -1.1726073142663753, -0.026826964771465078, 0.7627997687663207, -0.22657562467216608, 0.7776069422126417, -0.1353127864485545, 0.04092396605283617, 0.8852473097459245, -0.6435755545164368, -1.8001753636995106, 0.563269695088598, -1.4358297075333883, 2.1370174843366114, -1.1053429276078133, -0.8885219276134056, -0.5571252619577872, 0.7131050975583, -0.14528879787852392, -0.12164788008696209, -0.22380908553782605, 1.6079134573404112, -1.984435266078983, 0.9801268420571758, -0.14611712541208285, 0.3286801185436262, 1.5681105244495686, 1.798976163815832, 1.97545164321902, 0.13099201350998535, -0.5411103465244302, 0.5432525017011017, 0.9394066462446198, -0.6020242628423701, 0.034327226584135846, -1.3388441333048116, -1.5563775533278, 0.07053155421801656, -0.44846520726261446, 2.0500312716447247, 0.8770628445546025, -0.7446379238167032, 0.3284938226841392, -0.8360490070740366, -0.6651655264610417, 0.7972406756500022, 0.02587806522268278, -1.283126982438902, 0.7102309272516596, -0.94348184370241, 1.217057508873771, 0.5229710760958778, 0.10297978830038387, -1.0045765472396324, -1.625209135372133, 0.6403951459618523, -0.07358813615015963, -0.4633184163641681, -1.117637394133236, 0.1703978567986954, 0.6569711442420118, 0.37978959447230864, 0.2799869500078992, 0.2832906658391694, 1.546765287184662, 1.2244226399896796, 0.851374547606251, 0.7840568973639971, 1.6127095693353557, 0.021768165490596635, -0.7463673535773797, 0.7932506506363276, 0.9269688035833717, 0.688782664919633, 0.8111060432062622, -0.07026163555436286, -0.06833106505326014, -0.616904433145689, 0.49023460197616686, -0.041564974236277835, 0.3550057775051953, -0.398143480815958, -2.4329060884102565, 0.24600349537166638, -0.0001526341576913931, 0.7065555361779163, 0.44460917573192993, 2.132322643016811, -0.17244656374815223, -1.059872202028456, 2.389431291879061, -0.06993238768317579, 2.0642203202251506, 1.8169544435878497, 0.8012662695372115, 0.26352086909265054, 1.4069084125119447, -0.23091397081515008, -1.2269765888197772, 0.46630950238927976, 0.06076052766268879, -0.38349790351295027, -0.7878693117107121, -0.5600010628903681, 0.2292530052750705, -0.6914311103677682, 0.05047903469029966, 0.8457712796712756, 0.25868190401635355, 1.0722815765627172, -0.881103105951829, -0.9048421273961987, -0.21004700618750913, -1.2291419515151818, 0.6721734579091837, 1.1996417829357908, 0.22927055547110212, 0.5083704763495998, -0.5205073722767034, 1.7472487484001058, 0.8327834413001634, -0.08267016490312984, -2.0595589912525853, -0.6059203634939972, 0.5341251466197763, 0.6114980697229819, -1.1947910993047377, 0.6862058383270724, -0.7499871527672253, -0.13543304527365393, 0.9284086498888365, -0.572242040767915, -0.5503984242737743, -0.9226217946354892, -0.38852638501806563, -0.02773550297006442, 0.6366890426095404, -0.10009573321484251, -1.2056175511888712, 0.17913707208191348, -0.3310614610883113, -0.4367849643632993, 0.17268857878862331, 0.5985167896857571, -0.3224040971167456, 1.9555455688972552, 1.6039679080764613, -0.7297027466185213, -1.0803065159030794, 0.05380951881989561, -0.32734208992914376, 1.1591636706075168, 0.20601529418996917, 0.31412213109370457, 1.2019575635995077, 1.2058693869904353, 0.1514648745611985, -0.2900519220215027, 0.15027610240168163, -0.8374208187357173, -0.8216544097600005, 0.006159897767131145, -0.21837493945531253, 0.07334226452719314, 0.3272527855608532, 1.635279985705402, 1.3535160305342546, 1.3955429883199464, -0.1352836187030931, -1.4821889684696374, 1.0372499096239014, 2.562136594288338, -0.3606753134264327, 1.1996208346343589, -0.5157686354504522, -0.22591044692115067, 2.1432008923823336, 1.6014230267434015, 0.32240993951578123, -0.01959821881834863, 0.9149786488885069, 0.516830425033202, -2.8312676855727075, -0.08239227365963463, 0.11042756599311847, 1.8986781436521316, 0.7308169360025089, 0.3801665072662755, 0.773063756875672, -1.0328986475917927, -0.17903794534802514, 1.5350039102300859, 1.975804159531996, 3.087135338965401, 4.487300670179363, 4.369588271331448, 4.472753474787093, -0.36753981840860217, 1.266909760089432, -1.1027633918585547, 1.734025091222559, -0.744445929528711, -0.575550446683052, 1.4411817064798553, 0.35672238244022697, 0.0157295033651632, 1.2727207347585685, 1.8898077424979691, 0.3700712902047625, -0.5636004138406665, -0.5795710991979098, -1.4625566975484197, 0.5758407970863217, 1.390760601265217, 0.01455837850128547, 0.4997639820598772, 2.1180692439815183, 0.9939232619161427, 2.6328085574138034, 2.6355149391386803, 3.0705937276863753, 2.713858248154062, 0.7714419989981323, 3.1086106757574257, 1.951187992534522, -1.7933330023726537, -0.6954465074939399, -0.03527375123821062, 0.4303971669980381, 0.8028590350215281, 1.2659071259810009, -0.10683812733094544, 0.2745175689330583, 2.1750795618341314, 1.8988594014402391, 0.34923899335929603, -0.014459730570215728, -0.651946792354379, 0.7917942338770753, 1.9896870897743344, -0.595626023785247, -0.37212236037801344, 0.20057569434904077, 2.5961243021102507, 1.8280726408186736, 3.8376951416642684, 3.257870257920539, 4.084674055281536, 2.630965917691119, 1.5122017908185719, 2.51020891185186, 1.0867053234101753, -0.5561844851410567, -1.743688963050755, -0.5201373201601595, -1.3288307218382862, -0.0550572334349791, -0.8470569118712915, 1.2009720567327615, 0.794970241003371, 2.1968519614503252, 0.7215857184652955, -0.5048587063506159, -0.8182039825733205, -0.4910655315131249, 0.5942836658655872, -0.13906158053369147, -1.8803949486595377, 0.31399417362806636, -0.09989091131831292, 0.9356391749754652, 1.1044799147228526, 3.429352386704425, 2.1856667307670277, 1.3316539145875408, -0.49436128139762986, 0.18218303948486256, 0.7049268397366579, -1.038629164984652, 0.08277730693898745, -0.6012210663904786, -1.1998494470331071, -0.09187202984976317, -1.3627078388806517, -0.14803803175887342, -1.8219003945640124, 0.628310939382345, -1.8875028853347697, -0.6496560381310303, 0.8984287844450412, -2.0359588267180047, 0.6506516438973774, -0.16127354815564834, -0.15659500412955102, -0.421312352963013, -1.0089723438868297, 0.9446526853797563, -0.06004894574897428, -0.5630101948338837, 0.632214604195959, 0.40414992685572526, -1.0552047725518507, -0.3287208212621116, 1.0334702089428849, -0.04093181327036343, 1.2021586592915816, 0.2985796121199763, 0.8386407365628544, -1.987164047362002, -0.38958724753527973, 0.6479865892656612, 1.4384411141425086, 0.8695031897748231, 0.3404855916920067, 0.2301648454605594, 0.32833260631674516, -0.11948363349790016, -1.1332809968899504, 0.6640414097428315, 0.5843045919111062, 0.09269441722330043, -0.5407220208031285, 0.3112282764659707, -1.1881269907028111, -0.08059561670119189, -1.2044614575782444, -0.007338872935182927, -1.542029869195597, 0.0811496527838942, 0.2967297326900096, -3.433753801228392, 1.1617418502780317, 0.9355901406054866, -0.030649034608991328, -0.13930363462473716, -2.340039341764155, -1.3715996140543698, -1.743191635080306, -0.9978632116809932, -2.539008793674965, -0.8353841216159834, -1.5427138915946623, 0.4325468175309352, 0.3584224087528979, -0.564219639273293, -0.13687045614745524, -0.6385393069672813, 0.1417458378015482, -0.5952939951168668, 0.6871213473412477, -0.2887633172444014, 0.18863853362470295, -0.19052749998084872, -0.2735384717974716, -0.9477396041924091, -1.196651759096206, -1.4177970681568604, -1.591550051025893, -0.5078326982119359, 1.4594459620479432, 2.0568356971144954, 1.0128730906294694, 1.6380821528035656, -2.0456449119243043, -0.3720074921108752, 0.5660583699854854, 0.1908314284908974, 0.07927364251777615, 0.24060144930685412, 0.7004409145008879, -1.61012788928895, -1.1863392152430552, -1.2567067646024404, -1.225433126216058, -1.6059417933741187, -1.76602871801461, -4.041167067495635, 1.3498286888353885, -1.4148272647442632, 0.6358176539282732, -0.29889557418488216, -0.3655037489419177, 0.2462567615999702, -1.3524267410541353, -1.766005136786426, -0.6042904121592201, 0.235631093404959, -1.8104312547847161, 0.27983602951516506, -0.9250749529292775, -0.3295518058506485, -0.2997059314862429, -2.3081300646240264, -0.7690693826925952, -0.32885880646974985, -0.6765558406610552, -1.3934962332001535, -0.5189982998026526, -0.2219298706102473, -0.30721518048688734, 0.14836111506986424, 0.8983308613956684, -0.052602130590141336, -1.8740005413094787, -2.0756146019720605, 0.15930421831251004, 1.152126971954847, 0.70864939072828, -0.11065329086997339, 0.5397652537133409, -1.4250692394305717, -2.3861123969056344, -0.2173734651731164, 1.0559493336914418, -0.997398785012527, -2.506114665407106, -0.9825061921330205, -0.6520250901780672, -2.0540579818847426, -1.1981082294591843, -0.9573008098322475, -1.7215582071877884, -1.5791607669401984, 0.31818966436895035, -1.9521772263356136, -0.8581687884483581, -2.035041702960372, -2.04557885451793, 0.408734989501553, -1.1233437675220432, 0.062036736116973246, 1.6898958285953602, 1.5958741407993993, -1.3098552337324882, -2.311148948917268, 0.40640677741800907, 0.8514822913108072, -0.029867812500483676, -1.271546216234481, -0.3641630772140151, -0.5481432098307796, 1.3600965709650437, -1.1664518370285917, -2.1670223909569883, -0.5291532791114226, -1.4603141055055575, -1.7435177849158423, 2.0612844231666276, -0.8900982537993488, -1.0447877634069016, -0.4881775295411032, -0.6683952616521344, 0.8821952550624274, -1.2759808696123736, -0.2903222646540135, 0.25642958433560503, 0.41520757466071645, 1.701196020857823, -1.8329808680910908, 0.19384986232578127, -0.5292694472257561, -0.3937429963735119, -0.09548776482704323, 0.35362846945188137, -1.2183822348071973, 0.32102069999245003, 0.9359188538564988, -0.8634596295379028, 0.9377770105687626, 0.005489288386497549, -1.7450703805309686, -2.3522211920150693, -0.7044132157649886, -0.16966614792676196, -0.5932374008480267, -1.2362420445388023, -0.740256475608347, -0.3825884795606105, -2.1489828229739025, -0.80608280331801, 0.3380800900422281, 0.3557405151875424, 0.5477171876495976, 1.2402269528396102, 1.0074350255780893, -1.0281626648291786, -2.2723167895920002, -1.8059398675919782, -1.16538888023253, 0.1602182280711526, 0.8274361680912898, -0.5780340902877247, 0.41199920570441056, -0.8549021727394484, 1.5295046681770772, -0.38890422405906727, -1.4832849517726252, -0.7053980758873396, 0.3239014198977437, 0.33269225812272846, -0.9736191293369912, -0.09197234860342554, 0.21190904951037368, -0.5206094112004426, 0.05118921456292231, 0.6032008778069251, 0.7132011098472273, 0.5276037470022747, 0.29641958841774, 0.15289475087188925, -0.5470724693699879, 0.08475626378920702, -0.33032441626662684, 0.056117776747139955, 1.2394146253193232, -0.1750876535168775, 1.031308603640966, 0.044266874498268396, -1.320413064202637, 0.5946965597870013, 1.5410029203882418, 0.2272669895727592, 1.8578348793708206, -0.46284028756091994, 0.18838181204978627, -0.9653151815468959, 0.026526552363849532, 1.9257713866602288, -1.0743180160859318, -0.43589591498221425, -0.06302058142297594, 0.16630396275594964, 1.679200608931916, 1.019185939891028, 0.27822786764866336, 0.636931353551855, 1.1911828902788544, -0.9942222880843476, 0.7150744579553979, 0.22498700171596067, 0.5992101446071056, -0.46024337371309304, 2.214540005223648, -0.6111478890510537, 0.24024056084335552, -0.542449325860229, 0.9784657284844933, 0.6863200687350318, 2.177850007491279, 1.2634267752853077, -0.12124519466123285, 0.13397507431718297, -0.4236056567944802, 0.3167075711621714, 0.23430421803086884, 2.5356607525093224, -0.4491806936908041, 0.4222394187120475, 0.053875856189264874, 0.9508098187134014, -1.7269650569170438, -0.22162472415993764, 0.14440330888975145, -0.01392712437421602, 1.1874408902497353, 0.14369875754637743, 1.3378291861813856, 0.23880482785522159, -1.0169637630299182, 0.4312466071409673, -1.0200571671425998, -0.1719576989010577, 0.7371583569660236, 0.7871320619724346, 0.45333811979914357, 1.4149750760185547, 0.5748877710599161, 1.5936867199952194, 1.643861683090413, -0.961751450370288, -2.7970937408673815, -1.3114329024070737, -0.06393860097431346, 1.8954713502900205, 1.1617742438061598, -0.804785928081924, -0.2152168426676996, -1.4098720970451684, 0.8174385250719785, -0.4755598222481154, -0.6162649873537055, -1.47570381803131, 0.3919496762005865, -0.6531441000660373, -1.0948179215754044, 0.084183508041106, -1.4927167819304015, -1.0780666405384745, 0.08143443308050365, 1.7469539081952437, -0.7598307480193632, 0.9391005822648021, -0.18356963457383862, -0.6725825293157961, -0.47267470739709544, -0.38914589051481163, 0.06532764580226369, 0.5527162585008074, -0.3438849975815384, -0.7415094756459736, -0.40485015527667895, -0.20013190341414802, -0.3279025059772412, -0.26921070303668226, -1.3891048400286465, -1.1089707015734003, -0.251764487441105, 1.1137633216726437, -0.4692589632918529, -0.6372843298681742, -0.14294706098911034, 1.6416786455375019, -0.9842183351235052, -0.2975025155443652, -2.659130741610747, 0.22259879904948843, 1.3114959956914325, 1.1138071275822263, -0.25143890549603454, 0.7329392948418646, -0.2010393755366509, 0.9609842393845944, -0.22467639755658872, 0.9940682800684668, 0.8596524970646668, 0.34661995127533807, -0.5816262582725145, -0.10798904675676067, 0.014208221605854667, -2.5789665147195064, -0.11474890016828884, 0.04651716050393383, 1.3328829169661978, 0.668375597074701, 1.1138162873700137, -0.1453415938601922, -0.07684322232506151, -1.9761033263102215, 0.7751843302855963, 0.31191300506103276, -1.3101390374830033, 1.6841392124668941, -0.05903094319470893, -0.9654462256524102, -0.7589740885164791, -0.04426748811796909, 0.7170174663831769, -1.690497052848902, -1.0950367203438438], [-0.9295228866885308, 0.012842850098542243, 0.5393848013303926, -0.6987071069902919, -1.1485655483046977, 0.5886421817807036, -0.5804351623471214, 0.05782084684256749, 0.2148172548002335, -0.20516323936463512, 0.8555616202691696, 1.0453805703571315, 0.2926016301538003, 1.0059195224990891, -0.8466012672088916, 0.22720012623715918, -1.030949029897427, -0.4812115602498728, 1.1427432546684708, -0.016163618260678046, 0.7319657194363168, 1.7147231380829573, -0.7117739584680093, -0.7640763835003321, 0.43623779491120884, 0.19202058243984363, -0.4549624287392767, 0.6611885437569247, -0.651389136105205, -1.3916087948170146, 0.9885369211641589, -0.13748424810053705, 0.8473748844598554, -0.28949968471287574, -0.07493482786813001, 0.232506614544822, -0.03059140523259622, -1.9263745464630488, 0.9709114827091648, -0.14045417596029114, 0.32175910653211437, -1.3827665097745556, 0.6320387996387372, 0.7448748086963907, -1.3422866368789195, 0.22559568153881504, 0.20707470350237428, 1.6700967520407954, 0.27279440418423273, -0.3794832346580577, -1.2547899149602713, -0.37084783129037613, 0.49723338173697496, -1.3344475283607604, 0.7436307273089097, 0.29085693945088514, 1.7596373061231654, 1.5065269743031147, 0.5246474032170776, 0.3160823672285329, -0.8818143519305902, -0.39835264489871514, 1.0921524404322684, 0.8353499545656491, -0.252040644703326, -0.9444730932541711, -0.7433173535362014, 0.5657606487320037, -2.4905271326028706, -0.39788573333626703, -0.8638319734507135, 0.10697584936420328, -0.6117885354941435, -0.23007589452083524, -0.07767304176551593, 0.05136088620596365, -0.4195901436693592, 1.3001336420137006, 0.7348653885790629, 0.032660415829878414, 1.3123789942593538, 0.2476619143244627, -0.02583529177877603, 0.6485387177734652, -0.491473715856263, 1.323801569304863, -0.23631605477284576, 0.2820763418443882, -1.341581950895971, 1.1608165820077072, -2.466633171784014, 0.6171543410101165, -0.162157281269387, 0.12856797202688516, 0.8955458650732891, -0.4621183353037007, 0.2667927543308925, 0.7562501715072577, 0.4854356987226286, -0.39714625425789496, -0.1842307859544135, -0.3665031946590985, 0.29250727583868624, 1.6387380846040858, -1.1617744515098622, 1.0741136508536548, 0.43993172370431605, -0.6667609627694965, -0.8267462510027557, 0.9169403034072803, 1.125115491201807, 0.814826825160981, 1.4172069362040387, 0.018120727030819524, 1.9323239007841138, 0.8702514969355548, -0.7662301382874291, 1.6950546759645413, -0.2462917586030016, 0.7739966478155874, 0.6142822901423264, -1.0006100128480448, -1.6497092106951496, 1.1008647942426402, -1.6272852302191974, -1.7648571754216862, 0.8789353401004061, -2.264100543248578, -0.7477740105141577, -1.1522378838943004, -0.2814232289008361, -0.6012400919648754, 0.11864257855401078, -1.8481690669007194, 0.09881059406076952, -1.5270886409708313, -0.7501330730618332, -0.20866586334711085, -0.9622037483841618, -0.05693934608826613, 0.5890384058606039, 0.10757928643008524, -0.8509492105391264, 0.04879274763324507, -0.7798554587456856, -1.8649396327099863, 0.849708196977233, 2.492906837365107, -0.3903656333037191, -0.09546321309623002, 1.0560035428125356, 0.14091970161772022, -0.0250639296248925, -0.7926788868451515, 0.5319506829775047, -0.7477580223696947, 0.8774929574536713, 1.163303012162088, 2.0759677020767513, -0.22826927225542015, -0.5526365718228587, -0.16623151467751768, -0.2715551843191613, 1.0065587980846105, -0.36337415795480715, -1.4236629592245684, -0.9160248165734511, 0.44605420121664413, 1.0461244207023566, 0.6386432481034252, 0.2330380424106795, 0.32067927709346583, -0.05242101501819849, -1.3169469191089747, -1.5286852230410874, 0.569305537081716, -0.6873240409155316, -0.4109761298773774, -0.4144997080754892, -0.6858287353553332, 0.3056349711280707, -2.1423903141612497, -1.2246051106844507, -1.634193177368857, -1.8333133572784723, 1.4989674727262956, 0.01118251602133997, -0.005046491980141754, -0.8061704739234291, 0.9022194724496615, 0.2747636542788044, 1.9867559561405743, -0.0669335432490701, -0.5723795686991595, 1.4128316438720674, -1.090255520767179, 0.040258153238891245, 0.15614648685263358, 0.6744009095962678, 1.559524396286076, -0.8013772001858318, -0.3193569895474611, -0.45610580218827956, -0.36863186124019276, 2.5814922172803176, -0.7430516508435182, 1.6122634648694685, -1.098756651118853, -0.14712046828922615, 1.1875550881977048, 0.8811477427446236, -1.4747624697073816, -1.3746308872681043, 0.6987710835028411, 0.8449311868524233, -0.68491011474229, 0.42536582120232397, 0.06135928234058119, 0.31517845721990334, 1.040862930044532, 1.2434210447558274, 1.8759254112120345, 0.16076808576457577, -0.7215988273205927, -0.14956706857998342, -0.8026889370492161, 0.611729732333368, 1.1493357498540813, -0.10161164154312571, -0.12387336540247171, 0.679757061132942, 1.3464921394372906, 2.18480142626231, 0.8442993627213204, 2.0268769064365117, 1.456642738896419, 0.830362483311465, -2.2716219473210746, 0.8859518495480921, -0.5076373833703663, 1.1200674026517214, -0.6521744586447211, 1.927136181598647, 2.0161248411863526, 0.9228510513659769, 1.713541225552257, 1.3338256972337155, -1.0150280333486756, 0.41756424326810626, 0.996412522733337, 1.8469999272107, 1.5285296051863992, -1.7712386610382576, -1.233930575718988, -0.3700705932793084, 2.7541534020168283, 1.6059064995132823, 1.5427703384608626, 0.6518995607978149, -0.1977125302480525, 1.7175802463763576, 0.626467559080083, 0.43515578377315633, 0.35352463879994217, 0.9564655225445764, 2.206597072423421, 1.663535281661265, 0.13147077634187626, -0.2555155582451606, 0.929449353948707, 1.5521964754310498, 0.3360688262361612, 0.5161725819431247, 1.0890509076743806, 0.567839757156897, 0.15343907181167074, -0.39040430383773966, 1.92538888143898, -0.17900960138877903, 1.1483243154962393, -1.1518768983920162, 0.10641438275076621, 0.07201920764085858, -1.2280998532795175, 0.07452864447304804, 1.5857267869872855, 1.0308773940893559, 1.3787494339449553, -0.3300742606246111, 1.5061966011835082, 2.4486062503262493, -0.8542591106550321, -0.009953525035118342, 4.552296108745251, 3.09868734854623, 1.490763004409819, 2.222350403240843, 2.828135277225317, -0.03843736018850919, -0.17060675926207297, 1.036442592221218, 3.0223213981268096, 1.9371774340907195, 0.24164683481753857, 2.2142618921515056, 1.1706957913912297, 1.7397655841797983, -1.3835032317869005, -0.38985413015218995, 0.4751973195691332, -0.36700962401234005, -0.08764940598576675, 0.023896443874319342, 0.061217376638989664, -0.5615895570591974, -0.6528996309159905, -1.614478209428724, 0.779673692410321, 0.4915217450025092, 1.910220039003992, 0.3669962854800342, -1.3849114500412603, -1.876683354662299, -1.5471040698780234, 0.9271291412748288, -0.9284786754599609, 0.6643315582706186, -0.5006412931732599, -0.41826235553445923, -0.9146305030002801, -2.385752653603823, -0.9808506388446961, -1.3277337504431996, 1.6420131511660745, -1.9872500554963928, -0.9754157293971446, 0.17846004228761575, -0.7028775120117321, 0.427776087973286, -0.08402252686291545, 0.6137359467485813, -0.8463138251884725, -0.8387109145213784, -0.274846989716645, 1.0978884341593338, 0.5625251595394157, 1.125635042583679, -0.3788909065584493, -1.507897166210976, -2.397337522915482, -3.6061737663844124, -2.43819052927366, 0.10519618754649111, 0.0691215772331752, 0.8553590531487122, -0.9332147591753073, -1.1228002742273961, 0.7714027650157435, -0.9386789826279948, -1.1266237208986585, 0.05250625602278455, -0.4701804886701065, 1.190689933788498, -1.040515723158493, 0.27945757588947207, 2.947718998286299, -0.9979173069820527, -0.7141286272148972, -1.8864938142567034, -2.1691165229162617, 1.6826680741862363, -0.17048338813204722, 0.766384343605788, 0.4533488785556872, -0.3385049669820173, -0.6484141132908647, -2.088920996643254, -2.9127989344968417, -3.232372188553419, -4.495641673637776, -1.6070833984022623, -0.14288461754728993, -0.5500007738607015, -2.4821383882276935, -2.245822706648894, -1.0973615498972151, -1.2992036313459494, -0.4479710160311197, -0.9001351934070185, -0.7891447187146666, 0.12755613981402347, 1.4205976190351353, 0.24222799222061256, -1.586685506400774, -0.14597022019828104, 0.34048590972413634, -0.06833073275181198, 0.1586525075542434, -2.1340273660372664, 0.4719809675806, -0.9476956343459169, -2.9211804731751876, 0.5824382629502389, -2.1515936804090097, -2.7804337978456255, -2.052587915469266, -2.3253851046732104, -1.3306399982020571, -2.1038823179047452, -2.035663024507686, -1.8038061553031919, -1.5082174678759765, -1.056260893985791, 1.0385028874643951, 1.8736477936951004, 0.9224438158807485, 2.4643498625129485, -0.08192136728202544, 0.5067735340232649, -1.1978488625650086, 0.7309536553141784, -0.8943802283520992, 0.48764806940090466, -1.1994729135895394, 1.3075770376007667, 0.5259426062458145, -1.1676681405053146, 0.8002802380947912, -1.6018994200666468, -1.7799807915193238, -0.5605252813461613, -2.0562848302009944, -2.6156261674728696, -1.979071735651873, -1.7378918960382161, -0.09037032397051861, -3.062474270640558, -1.2161052660513205, -0.09001056833561558, 2.3683144644950462, 0.4064213088699392, 0.4773595863298263, 1.4344036396599804, -0.755393506372714, -1.4744384462107343, -0.7976833100152458, 1.1804044459803689, -2.331734871293745, 0.04318528684252777, -0.5858091080341875, -0.22934753378788175, 1.4819437428342408, -0.7191346120804626, -0.9852775680255361, -1.532999011556675, 0.043197649325361395, -1.028129014430691, -1.058409125188016, -1.1674945919397601, -3.4195602540244128, -3.0087592290566696, -3.2294226145395033, -0.5180693414568868, -0.5637524544174227, -1.3955746913512266, -0.3956573042983877, 0.21708380093198842, -0.8147319909525006, 0.0569636946661404, 1.117525562420831, 0.6848720796640082, 1.84892507046302, 0.820882871430809, -0.8265786771172188, 0.5056727719033642, -1.8933682099464002, 0.5585385296378266, -1.429275684061013, 0.1624191357052045, -0.04931174480409462, 0.48148061317024704, -0.38959879569257283, -1.797476574366344, -0.4617987349874755, -1.9987450519677685, 0.48572865657103603, -1.2660638468842271, 0.19873020624054402, -3.2272099872663436, 0.07562723626824744, -0.4837751122416052, 0.9921966576123019, 0.2811746286956939, 0.7399986384926461, 1.329786061419771, 0.23043850721958087, 1.0854999432265835, -0.8510591684122313, 0.6084820172623804, 0.7105049251142483, 0.708811344023551, -0.8854288625343398, -0.23420618029709014, -0.9386925691100007, -0.5137080073408807, 0.4210332386509744, 2.1442192155425235, 1.3215597457674724, -0.5509520982667393, 1.185536031018549, 0.22172247415174565, -1.4191333841137361, 0.2270845573298339, -1.5460271770208864, 0.9468691033496129, -1.061760085336205, -1.696470380642926, -1.5990126715505, 0.07374856193733746, 0.12002108244403394, -0.919974180976389, 0.0011673917593041493, 1.4338616325962725, 0.09904514787341287, -0.6545866264405227, -1.7370010793310284, 0.3223804023969041, 0.09414796355443739, -0.3023437929969336, -0.03414743537440976, 0.41219502998102886, 0.6219525087593697, -0.2157434914293466, -1.8181150213610424, 0.24808783562062556, 0.8938658905791644, -0.875696869198487, 0.6961560758826745, -0.3337097605141719, 0.740078459081534, 3.4136727016013126, -1.3126293784733147, -2.559054674498069, -1.2254790267773694, -0.8752131523306153, -0.0026729073639803307, 0.9034448370597645, -0.04222102411304468, -0.9598376884071116, -0.3866924287401676, 0.5054808771979737, -0.20255297257903768, -2.369098160259699, -2.0423386236610823, 1.3824721995697755, -0.04628685020288011, -1.007183100160984, 0.33051166049809827, -1.1382098765479836, 0.5160416169431776, -0.5888428121329269, 0.2508925988019374, -1.0580824210421707, -0.1224339120335404, 1.4591035036170652, 1.808056259887422, 0.21635499478035683, 1.313729712466095, 1.5214638432618501, 2.0251882806450885, 0.7994087750318041, 0.7812822866683673, 0.9420796536735832, 1.5636677688105496, 0.10092195976533733, 0.5334579424218129, 0.4292215471483339, -1.7669667437791352, -2.3804789339836034, -1.7410300314559957, -2.886251571169858, -1.7583923229982312, 0.22733511525305072, -0.8536503893498396, -0.35357491433618415, 1.9676691490238625, 0.16765460367517307, 1.9460485225974868, 0.5693517637765786, -0.9950022046840222, -1.1231181284476404, -0.654010227845606, 1.2029833202376932, 0.2218154577541393, 0.7881860572252665, 1.0712541954299957, 2.3182164655345, 1.881493799399821, 0.8265319821424156, 2.1190292854424317, 2.487316461678486, 0.9407206931258243, 0.10051525114318856, 2.4402549093764314, -0.2536920788672752, 0.7787067754892862, -0.7578559004624467, -1.4874556911332026, -0.41497083691579123, 0.9049577574625804, -0.8462405525121062, -0.5032180065598323, -0.9070103481804144, 0.29642041694094695, 1.978352443386984, 0.45923437724367683, -1.2005027375187323, -0.6489504472090147, -1.466395647421008, 0.9281588886365397, 1.7757237472327376, 1.0691352243006915, 1.1026873353955897, 1.3748500204568153, 1.222570002701479, 1.7188211589170457, 0.48149902778150794, -0.4945413165285679, 0.646959352172454, -0.7265095769725144, 1.7438028122085085, 2.9330546728021263, 0.6326481217763098, 2.388898238840528, 0.09951294655773495, 1.0077170571191176, -1.2832931905159233, 0.1412792604351716, -0.09632882026174014, 0.959757830175706, -0.27207035337323765, 0.10069004162385423, 1.1047521872994173, -0.9504901240376267, -0.4329800780714589, 0.6478559629088023, -1.586691616653448, 0.6635318631609538, 0.5552296255602788, 0.29846109187265324, 0.5485570386883176, 1.3281504864989557, 0.02457629470220555, 1.1053975258103925, 0.9329087214342804, 2.2861503668051575, 1.162168558938129, -1.6795768035712677, 1.0698791861575012, 0.19688808048985473, 0.7148766376413066, 0.36068105902872555, 3.186221686220832, -0.011026038107547613, 0.9410289471208347, 1.0397216586887734, -0.3234229561408273, -0.3762479993823607, 0.605841834461928, 1.5092278910806314, 0.9977067409257546, 0.32247297949150744, -0.07745421170062643, 0.9846262106968995, -0.37276218675206535, 2.557184572244894, 2.041584782754567, 1.660689523322049, 0.5079244435730965, 0.1071381712887889, -0.35117924668147754, -2.838861391895464, -0.8283826152691278, 0.11255145745154144, -0.487030162490468, -0.0747858778499244, -1.074704529475418, 0.1898024886703825, -0.36298725302772517, 1.0047657273120303, -0.25546053380819667, 0.204621586607256, -1.3527391051092772, -0.44803817636001003, -0.2604674865950547, 0.04388207911332857, -0.38739262149572834, -0.6517540591917977, -1.4994316846812306, 0.4965197092993318, -0.15084683534270518, -0.9308884073460298, 0.6280623337488523, 1.3916990725381384, 0.2510235486532213, -0.024744037470778607, -0.882553981875089, 0.6562867836579374, 1.3874393778785923, 1.276458964583258, -0.18221244324001953, -0.32785600269457826, 2.107447195364821, -0.7244785144923991, 1.788865150468725, -0.5184343081920807, -1.28499987529413, 0.8318764306253553, 0.8429613886932549, -2.0106011121738474, -0.18617286327295293, 0.6172540861747174, -0.15230692235149432, -0.5657009913036917, 0.11170500629185079, 0.022176035433943305, 2.2251542899509165, 1.55781659698645, 0.9778709467335753, 1.096631108541467, 0.7351043391882716, -0.5441491856396662, 1.625450020555771, -0.11566484453967432, 0.7093130462791531, -0.5954815028574044, -0.67189884622083, -1.0978103062939029, -0.7616583679185461, -0.8944355304444072, -1.0327942184034247, -1.5591524534303096, -0.32326563158292, -0.8739079426173674, 0.3738820811833903, -0.7959905749072089, -0.613208068557572, 0.5412351336902163, 1.3171923182358531, 0.37764865532377717, -1.2895785876929666, 1.4055233642530731, -0.5467684675827307, -0.4053846215583225, -0.9902799466098929, -0.10037416546816647, 1.8911270171358117, 0.10653995205347243, -0.5726255593797083, 0.02261875310195402, 0.7966003886506171, 0.14214891710093278, -1.0185173194817794, -0.6738380479078405, -0.8129142392842206, 0.41155890282605073, 0.4758378350177585, -0.22782646225229358, 1.6752848041833401, 1.0658279435582052, -1.3499228370324134, -0.2090391832899901, -0.2884779838788036, -0.5563137072287034, -1.2163661530547356, -1.5866189367239703, -0.8744186398428644, -0.959076265041325, 0.1350739776947513, -1.2020549946740853, 1.401330830530223, 0.5032869874993268, -1.0745004999242465, -0.9151021618207977], [-0.30203928940959657, -0.6416635998244103, 0.22113471512301663, -0.12648373009815686, -0.4904280014831388, 0.658369899921471, 0.4517454694525839, -0.1555250003816787, 1.6570146211580097, -1.1601465604638008, -0.2853895547230046, -0.31754587144759794, -1.6370434408386862, -1.333658994275535, -0.9304702305757776, 2.657336577219739, -1.1617185055960597, 0.2724617215595341, 0.36162768624293257, -1.033831809523329, 0.5300126064734065, 0.482697902617614, 0.8502343644495307, -1.0438893950051213, 0.9015239894223152, 0.045229160368373635, -1.5547371802051568, 0.39538353195866455, -0.17619077025203786, -0.4114345642758269, -0.5798059662028894, -1.371136015652732, 0.27215117981745096, -1.3644977335231498, 1.2509255366699568, 0.28633865017926874, 0.3013551333213276, -0.0717372312196593, 1.668501294965298, 1.1353036193064678, -0.6860647355609127, -0.7340381164121205, -0.06241799999532185, -0.30110812115228747, 0.13078990515793215, 0.18091892378094954, 0.1494767890372198, -1.1079472846001976, 1.639736290070271, -1.4531712397815824, -1.253664445430959, -1.4347795879315781, 0.9668942250847513, -1.1264778732703935, -1.3993222238157716, 0.5824207677557692, -0.5143718953845942, 1.1703780269830382, 0.3531755890579119, 0.3150169576667227, 1.2972284688323321, -0.24818702560212616, -0.7049534239982409, -0.07637427385766132, -1.4463484842089178, 0.761314719639506, -0.9939443155022, -0.2900099883981863, -0.692420051682437, -0.8713341694905483, 0.7734911520819715, -0.352901749473885, 0.25243586420650527, -0.4577251418988293, -1.685565217393861, 2.802036145519291, 0.13557529729136142, 0.283350074094433, 0.25841501945509754, -0.7091823395147936, -0.06954176281544748, -1.9212700113335472, 0.17419825836995098, -0.770025634642608, 1.6780959074772068, -0.0929561758608111, 1.278998259362539, -1.8551388851808392, -0.4866105273822639, -0.537687528254387, 0.2541326682682508, 0.343514859099191, 0.07887614314806939, 1.9705893918651398, -0.5560731425196712, -0.6691294058517325, 1.2566338162563664, 0.6168148798962441, 3.3224062707019555, 2.809943632026602, 0.5064155338473726, 1.3103717218117974, 0.879543748698521, 1.5966380194437744, 0.9173869654407963, 1.1906164117903175, -0.9073505147451958, -2.6763580884030014, -0.4579970033717045, 0.8466962858974018, 1.2581381360557784, -1.2448797808941807, -0.38042115410161575, 1.2839988421976882, -1.326985812488038, 0.05857832677935936, -0.06988733789575931, 1.3292328639397373, 1.0940377215052688, 0.10532159254316596, 2.8140237026437975, 0.16986708116623558, -1.274780582832395, 1.2472130619734767, 1.2329645772753999, 1.5443063471987055, 1.1667823213544526, -1.5871969743446244, 0.529887193092947, 0.4947495028301695, 1.5393501630410897, 0.6224744006465504, 2.2712485349688487, -1.521646710386853, -0.3224460505749227, -0.5641057676538533, -1.8852355095600226, -0.8125360044468504, 0.3194817649587016, 0.3537709340468706, 0.01140688198801002, 0.7135668236389141, 0.39488903003910103, 0.30428678028315165, -0.22658610869446708, 0.39717038611524114, -2.258570344161451, 1.127788568471438, -0.2783286941461594, -0.7670350171262044, -0.5751563468866903, -0.7795933326352331, 0.2732576643904237, -0.20160094606434806, 0.23489278592131121, -0.6636452129688325, -0.25915549500098967, 0.14447371979997797, -0.5328346711442219, 0.9525289266399216, 0.4226760218920998, 2.2070337377487945, -1.0943517841668569, -0.5208452609925811, -0.23138553021290004, -0.13605713135988912, 1.4165919312596957, -0.7224750739384469, -0.628765098493718, -1.7165537530381143, -0.13560460328335872, -0.4805802916664448, -0.03375648412014212, -0.825372370902828, 0.27348420060158524, -0.5922019426115794, -0.6540435848937048, -0.36638169175605667, 0.09076877172158572, 0.5505938242429415, -0.7538976677895596, -0.26011144259274904, 0.984141427329037, 0.6442947731313106, 0.33168062518307123, 0.5584279697898006, 1.2459454978095348, -0.8762071398337018, -0.2441646029963058, 0.007675113053680794, -0.3681546705585136, -1.8874049436911942, -2.535362737908134, -0.14477334582864707, -0.19259043966378275, 0.6363217334179198, -0.7165642803416721, 0.8484476794248541, -0.2641654096349068, -0.6407431230180676, -1.0397245426913913, -0.6198510755823317, -0.7170078924968264, 0.21921236692685464, 0.046807880557118806, -1.624071758762238, -0.4001690290831167, -0.6081096448694336, -0.975005485474807, 0.1337216625598774, 0.40244500646736414, -0.3370668438081804, 2.888326740772483, 1.1652278615814555, 1.0012453510681447, 1.232507787154013, -0.2510203303757185, -0.9942074767161221, -1.010174869776754, -0.048240666947622336, -2.169847162221507, -0.40188151876298156, -0.9919437881072688, -0.39707679097331305, -0.6934241626181403, 0.46648203685371453, 0.6988571495063829, -1.256704797252973, 0.49029474998449174, -0.17529753460080008, -0.5431489240411226, -0.2561961534372614, -2.268027334339755, -0.9374724209039247, 1.2217696060426446, -0.6918651802733659, 0.9296381120153921, -0.7521218530332047, 1.5734206585511104, 2.010906596935764, 1.4895184088737818, -0.37788441843220755, -0.7569711675830781, 0.42226116762864174, -0.6629282312294148, 0.2499021550840935, -0.8057131189333147, -1.35088889710032, -1.7961032770153547, -1.292368739201778, -0.8237772712895596, -1.5034191661213454, -0.3525039410153228, 1.022950432845992, 1.1640558079239989, -1.3233160558443657, -1.4357486925263314, -1.1645208609582056, -0.085509065463499, 0.011831665336783277, -0.8364315901762321, -0.8663466019424099, -0.43200227553940174, -1.3862752237137757, 0.8548914401579305, -0.6972950383775485, 0.41016382353646375, 0.5915871542943324, 1.4365463733146595, 2.0579856353317827, 0.6502921433682388, 0.8555311662564807, 1.1901576783165246, 1.130108835033225, -2.0941890496587603, -1.2822892119278069, -2.051091806257977, -1.5172964251753942, 0.10600478618865009, -0.8056769505934319, -0.6990355856090721, 1.3554677887804238, 1.6118931013555104, 1.028806520008607, 0.4551728123404651, 0.9766814795979472, -2.324478960646356, -0.36211601447995745, -0.07453291241922134, -0.3153966808181015, -1.8572781685840196, 1.8188821305304528, -0.5644080509175557, -0.9472057205377388, -0.2918149440588909, -0.404340497678281, 1.1681894746325925, 0.8635090362002714, 1.0114226736480172, 0.4231861059021585, 0.8004884713752292, -0.14498571683859982, 0.4313498085600761, -2.4124803437972457, -1.886254483824643, -1.4988602694048574, -0.14637794900218995, -0.08638837444637487, -0.055173591455531815, 1.0334542950838062, -0.688112331678495, 0.631838744660332, 0.09521339084135891, 0.8769428896728623, 0.41534906043502295, 0.754491331640683, 1.1642021032001781, 0.34156218262158633, -0.2256244963232013, -0.9251327628309081, -0.8263328955367999, 0.4527027634525673, -1.1135582260850916, -0.6648534446436736, -0.8161911623726066, 1.065023052524248, 0.08998354564536754, 1.0573617440072465, 0.9342016067323943, -0.053775882351324404, 0.35871963010056446, 1.1943857476022628, -1.1904615052848344, -1.5105562603258906, -1.1485774466790297, -0.4525726175906731, -0.5845202926490389, -1.2613920538002952, -0.6420868188965158, -0.2849158565877889, -0.7102652054256765, -0.8932914999051511, 1.0373375120007517, -1.2540378969012478, 0.6693915606096635, 1.7669455522587023, -1.1544379743705901, -0.37442604241153127, -2.71581909363621, -0.5684719504594528, -1.3476821997166992, -1.7722722164605436, -1.0434301488934636, -0.04273863065783786, 1.2279387550985066, 1.1492167135045006, 1.2995457365921947, 2.3679401430782434, 3.2380480107160134, 0.579201073285104, 0.03554056425545038, -0.07407823416289278, -0.5808924539248417, -0.7652874794818667, -0.33071005697726524, -0.6220521129199864, 1.0104184729581511, 1.6884964299105067, 0.02677002579630776, 0.33903048541118846, -1.0634861704116338, 1.1969883165532342, -1.6161427915962565, -1.0783118768583182, -1.0260245309416858, 0.6133630032157918, -1.4939879773188351, -0.8011308199320865, -1.6497062013100559, -1.3846345146632557, -0.11120072461253526, -1.8825934627135639, 1.6220888091523509, 0.47057046698579963, -0.4280525424019086, 0.9257033082887537, 1.5259543193359921, -0.27498372924932785, 1.0136318766874135, -0.925672236729434, -0.7397921573423234, -1.4517901011242256, 0.27269351187008395, 0.18980098712808244, 0.9950814362409525, -0.08401643494769397, -0.4099095596626345, -0.9211440283562149, 1.2963579056774732, -0.3377176319059853, 0.19261261506976152, 1.2012190492372645, -1.5846110495369432, -1.2579821028432017, -0.4363177908402156, -0.005493454284814549, -1.5599440990430402, -0.7706227936482831, -1.8702029431886729, -0.4551279240589631, -0.15516111323620926, -0.5727386068078771, -0.3466168718018937, 0.08297415481781094, 3.3281008922569537, 1.4683100907562145, -0.7509951926339905, 0.5575286696188394, 1.2107329857501514, -0.44347265546674314, -1.6367977041833863, -1.0709975760159318, 1.0967509380432006, 0.7790231153422417, -1.1978803178091844, -0.7132159217745754, 1.5977529124160204, 0.7367205543043074, 1.6919107081462694, -1.0691580774737643, -0.0237645155473495, 0.08717854656228607, -0.9130041399302018, -1.6982552772085946, -0.09355676504841527, -2.3949356939365245, -2.5615547865146535, -0.3192969732286537, -0.05506444074365403, -1.0247397631135668, 0.2301267717989241, 1.102620385803286, 1.3893117512093929, 0.8329986284753017, -2.200048772716992, 0.2868897670161844, 0.7570534931627665, -0.15172448358686275, 1.0669464309388135, -0.3212234321264278, -0.24083950321932682, -0.777546090477044, 0.7800233409980661, -0.4986617262210862, -0.2965120757293536, -0.4040364662846677, 1.409062382220845, 1.6780791103078034, -0.11297011889247972, -1.9596341603645273, -1.6856864233977866, -3.034686580427613, -0.6321782185836098, -2.2397226757331503, -0.02661406324454554, 0.46804266064979694, 0.15645708131432418, 0.16511424695710075, 2.2303393460937833, 0.6626653893400408, 0.3178548608026871, -0.5801670479846927, -0.9017683610132557, 0.13595949889256598, 0.05700478320694562, 0.7050566424568658, -1.3382691032076464, -0.1483635706471234, 0.17129037768751565, -1.496949679400347, 0.9415813938942512, 0.16801614511000768, 0.7430696034561979, 0.17676413045164327, 0.8800519213077826, -0.7635534655083113, -0.08473450516415595, -0.1879677883770498, -0.6992463117543888, -2.295467082164617, -1.2431123120923782, 0.6848129984345177, 1.6679881413655775, 1.3424114781749628, 1.018910100016946, 2.291184715480636, 1.9751840012196158, 1.9377647163110188, 0.3460674835419852, -0.8651163905825363, -2.008769963915074, 1.649944713648184, 0.31666488422600736, 0.3789212334435093, 0.7921702153965444, 0.6502675155187667, 1.0206361624796019, 0.438038790272119, -0.2933769082044248, 1.0126206961782949, -0.8541802562108655, 0.2969227756917303, 0.6751698868641333, -1.4189218201122948, 0.36131966615235706, 0.12215544782786432, -0.269990261973474, 0.12512029411104297, -1.0867651216152492, 1.114346800724407, 1.367155219237386, 1.1000872100765393, 1.283988455357316, 1.8538474425534268, 2.0410335039312177, 0.5925470808951878, -0.27583007397340403, 1.509616357604826, -0.22138861931779585, 0.05551711303731861, 0.3715800355243996, -0.11213919656449459, 0.31001701798204273, -1.1209082403863968, 1.4095202625270766, 1.6442787698355423, 0.45418125714700514, -0.39476665998274874, -0.3186609372347527, -2.4351640429976618, 0.5685604873290239, 1.1543418345957939, 2.132430159464968, 1.329573356756691, 0.9132221251514107, 1.0063582761548675, -0.8176366949010302, 1.3392193451046772, 1.139551691172899, 0.7188369206079827, 1.1166715047070368, 2.6436849988487037, 2.0570796839586754, 2.216964597300637, 0.12025705648763681, 1.648955223334662, 0.4527222168404222, -0.33829480285858404, -0.07809643158773492, -0.5836948997668256, -0.3770471271675925, 0.5993738697125346, -0.20535654697809883, 0.12825000145797993, -0.11953990927157372, -0.504787778188546, 0.8803677860739477, 0.8029043296678704, -1.2440459805749788, -0.4719841151998819, 2.096906282351048, 0.2682214991856144, 0.1628394011277973, 1.0383147297499056, 0.2778517056607578, 0.529853027781438, 0.7949563250037625, 1.482551593375339, -0.5569338477076721, -0.5863576067946003, 0.27395547113157004, -0.4498608064802797, 0.25889079267841253, 0.4774211841237041, 0.7804885063418217, -0.898055275290774, -0.19839402697040315, 1.0444752526229655, 1.0125452595769147, 0.5512801390049946, 0.8866670991308124, 1.407328357661007, 0.8307142210508123, 0.30252650297186523, -1.9135884599113182, 1.0737280354612564, -1.2045661111030002, 0.1184014628810342, 0.05479239807077145, -0.7778470591739028, 0.289063395598267, -0.5646673521456295, 0.003909084496343135, -0.6858180678410162, -0.831029451291141, 0.17061246658293097, -1.3324110660470636, 0.2648674135155539, -0.2517835048459989, 1.502299026671859, -0.07255286530923599, -0.5958752462932707, 1.3401897254030248, 1.168474692249891, 1.551337065591244, -0.6060320240976159, -0.507950781979533, -0.38190014711117976, -0.04797590492926427, 0.9693846174881038, -0.8279838962398645, 0.6653802966983718, 0.38526258863461166, 0.17733127118124745, 0.13314645583997506, -0.7944372189747024, 0.12691383675343906, 0.3308923932261755, -0.16637734207696345, -1.212321700966088, -1.144676132117866, -0.2891715493097603, -1.0494516913032874, -1.468124186805795, -0.8444971826694749, -0.9245954119294485, -1.2535151699775033, -0.6079024819784606, -0.5962359412577708, 0.3643519916328972, -1.692558942459143, -0.5814189617989692, 1.1130518470506834, 0.864492768154407, 0.4313658540693968, -0.35479941321106273, 0.10643063767262136, -0.4642527307603711, -0.3075167831036765, -0.9352557521671536, 0.5622908702934004, 0.20605427228513004, -1.1077007545402089, -0.33538245483391577, -0.946879470069635, 0.34762347505965324, -0.06619273653843345, -2.2524653664317715, -1.2202009259479358, -2.3214952227563486, -2.186969230279281, -1.737497230463691, -2.558932682730387, -0.7016165455265139, -1.68059369136432, -1.3579124143141916, 1.0158153792294076, -0.9039920695962068, 0.4351751395747574, -0.8775097177391277, -1.1559000082386752, 1.0713424987352107, 0.0738943310383542, -0.6493483650937459, 0.5259227447610652, -1.0283408759316714, 1.2625414323390678, 1.7390951071794922, 0.6976208853994567, 0.38583224511955655, -0.329977680852883, 0.551870140012883, 0.24935833761560625, 0.09429511375493635, 1.8903416621220523, 0.3609403602157325, 0.21436926394353648, -0.5773085149682609, -1.1382540126753375, -1.0868845216075422, -1.94823646932028, -0.730603111926736, 0.1107783257867638, 1.8848535150130898, -0.4844431494301569, -1.3504193559917639, -0.1063867451202389, -1.3607407156201226, 0.8768113598988335, 0.24620444724550827, -0.9175393972947979, -0.28811595531658274, -0.0031326958637144433, -0.13487679703651767, 0.89626169698305, -0.30453345735156173, -0.7423163541731251, -1.7071401318635253, -0.6868045622195074, 0.5914570735923417, 0.7682072257416016, 0.5566868832140871, -0.7059461672500492, -0.1355661676134085, 0.4375680108704642, -0.05102632532670145, -1.712224939979456, 0.32789314990884916, 0.4098557330530285, -0.3510717562325786, -1.2602360434400577, -0.3582857525844757, -0.14660674033771562, 0.09940381547373439, 1.2004124023096026, 0.24537455511987558, 0.6581255728776223, -0.09518013168729966, -0.10674157018493166, 0.4070834699677348, 2.3711411599799335, 0.31492703431616964, -0.3529905957338778, 0.7038947955105688, 1.1922493816275475, -0.22575481617681029, -2.094088262390572, 0.5121045741550008, 0.9231906171906068, -0.7848570635498696, 0.8997192826314864, 0.2606029767727463, -1.4571366896787812, 1.3593776221938765, -1.156997202916588, 0.4608818758397381, 0.6420385215588352, -2.130471572544306, -0.29578685006733574, 1.6971863155873983, -1.2342283248671229, -1.0669288874999758, -0.0897819700399727, -0.2351562475992532, -0.7496028482039371, -1.8534426875524124, -0.6886188203485921, -0.6226582490049875, 0.7608989944148158, 0.04421784598580537, 0.4963219084721885, -0.8221288627405109, 1.374228680343071, -1.160772586087058, 0.7226484638515307, 1.0897341262347444, -1.8072604857854209, -0.552145731487799, 0.7266948220720572, -2.1158864645747815, 0.9270885920745471, 1.461695724605303, 0.490820999585898, 2.0160988469268033, -0.08116082143939912, 0.03804060515425135, 0.03525979463459114, -0.3012491666393603, -0.15585573307088643, 0.00662709236238325, 0.0738839943553535, 0.6683811089006102, -0.4140223089916608, -0.10728212385498655], [0.7881047319930587, -1.654796439772028, -0.21885168899683416, 1.7469684487387485, 0.2838923966894718, -1.2524946279705722, -0.28280500221448956, 0.26063886764567634, 1.1047411901108075, 1.338178164651197, 0.7797893639455822, 2.15738932456146, 0.19156492155595292, -1.0833520786545456, -1.7527837712137162, 0.21083128253870562, 0.22507292228468406, 0.3125063860739161, -0.31993823063910587, 0.17772141722070742, -0.035403446593497555, 0.4066489252157962, -1.4394535689672652, 0.6722834507753777, -1.8742355414695293, -0.9221010068514852, 0.33264086688868905, -0.6472362415826473, 0.9055442170244852, 0.025430439420076348, 1.5689033753697752, 1.0110254845612947, 1.0238716643211758, 2.314848923719855, -1.1836463546815206, 0.834528498930964, 2.703485699628217, 0.6635122997075045, -1.0924580646195994, -0.3043509514771247, -0.5155360751743772, -1.1757075444735017, -0.8121970346240867, 0.3095792543962183, 1.6657555007042637, -1.1634468908274902, 0.30045395157639865, -3.0060918993348067, 0.7096733364102954, 1.9731225108731785, 0.18056510186456795, 0.8352780789876465, -0.8829515841847109, 0.7568723067244061, 0.6299109816691075, -1.4773250032790968, 0.7334937516953267, -0.7832408008515678, -0.5779758887201919, -0.7751496583719253, 0.6920865233606133, 1.3736055493735695, -0.056041790004124625, -1.4866736290763896, -1.402930601513104, -0.25782990017568846, -1.3782591597775629, -0.3498006283730091, 0.3386067918559247, -0.7560010461712451, 1.4407864900522969, 0.9433332965500563, -0.3375010035979488, 3.753664372336582, 1.400588654103902, 0.18752115265131822, -1.407325883229057, -0.886294051374702, -1.5610124882303458, 0.7759162562293094, -0.5955266590225323, 0.6880157267626258, 2.722736352659577, -1.0923049943617624, 0.16764138161422784, 0.26098552552829346, -0.9673863471495303, -0.671711195296524, -0.0884215318806039, 0.8651681667795237, 0.09733856840167263, -0.15612716485863862, -0.5475725268963071, -1.4769021611184718, -1.7057623961614885, -1.8676367099888087, 1.1280863383356812, 1.2761221636363105, 0.6870494105029792, -0.41303074516093946, 0.061200387793960524, -0.49576276179804046, -0.6579938074397723, 2.859871262189555, 1.4370177054559203, 1.5221704022579474, 0.2652855813332494, 0.3036442180103483, -0.07126581364595111, 0.35748914851485736, 1.869074477009357, 0.6270731167967117, 0.24782973797193353, 0.015923794477026465, -1.672747253524736, 1.0613888226379757, 1.0659357415560826, -0.6769544873036011, -0.4040607577985509, 0.4855232642158771, 0.29017784566429333, -1.2309960533938735, -3.470217556805956, 0.21283819454573363, 2.0142388231937653, 0.11639625987647995, -0.2343919958175292, 0.49913262117353385, -0.710567028970426, 0.16884812880042827, 0.452584040703808, 0.9687447271858767, -0.5414324647206128, 0.3112336526100778, -0.48240060867830253, 0.4793924316324595, -0.6887055850689718, 0.5313170898008043, -1.5933692405262587, -0.40199695002329494, 1.0334756048391625, 0.4568363803104091, -1.5560099338724909, -0.5986971614427291, 0.27422166652027546, -0.181787990285421, 0.5687268934196352, 1.811767317035747, -0.699638189235559, -2.1924198576181033, 0.41015738454655387, -0.5531171812070188, -0.2678649693206123, 0.47764515182422457, 0.36769609550148685, 0.6666567362530686, -0.06215732641482872, 0.7345657218188388, -0.030752189035340702, 1.9241763953006894, 0.5679668592695666, 0.8420925356386475, -0.9723181044887623, 0.5267315842622052, -0.29049904832844703, 0.1292667389596205, 0.6047966720561687, -0.3770881349332851, -1.8362243575051493, -0.039595403357908385, -0.5455049349202512, 0.1526109319965294, 0.967369341204808, -1.0803936553319138, -0.08378841495661765, -1.2176526882766434, -0.34657505997100185, -1.2910705310125847, -0.7005480596231379, -0.2885406630676994, 0.7882927589766129, 0.13571714601497573, 0.02218515102732856, -0.2079311926229312, 0.22552003227383136, 0.3161684774122274, 0.20767629779883096, -0.8015273778793548, 1.2020053872650833, -0.42635534645427103, 0.5069366455111604, 1.0223723203554944, 1.1824235663864129, 1.3143714139553748, 1.0112020990477228, 0.018895827576666906, -1.3057114832174948, -0.039476833991110113, -0.3343502434429826, -0.33997882164060056, -0.15807625172515205, -0.7130221844000597, -0.13703822068557683, -0.06290163509218794, 0.2778671649250887, -0.5552903513996283, -1.1147442575860158, -0.3341521169414564, 0.6522203551447552, -0.782441988934223, 0.8522875948442221, 0.7571338166128412, -0.3508535280881555, 0.5398375226377518, 0.7624278592662764, -1.2852788693117132, 0.7968598872941861, 0.16118541107710327, -1.8353283540812027, -0.2616955422061252, 0.7207722885669167, -0.24056451960706676, 0.030796706182231844, -1.3608537271640349, 0.16835477867137716, -0.4012674380959364, 2.3812627179052033, -0.9234992518474258, -0.5185192235461704, 0.01937732589524429, -1.3192220706692606, -1.915476765023792, -0.3377751929589944, -0.3820165599659534, -1.7256235656087442, -1.510608355426343, -1.0995611283352762, 0.9098331057001171, -0.5565815915175916, -0.011218932656870873, 0.2971074083522275, -0.5907455436296806, -0.1943844287211428, 0.12521539890302089, -0.3996880514428161, -0.9655065700811609, -0.9907448541245205, -0.6314587941227486, 3.034848143206366, -0.2840024870279591, -0.6770146954025339, -0.945822037477199, 1.3134379419185096, -0.03637119232179434, 0.5759315035325812, -0.6765920985765748, 0.5629921748326859, -1.529407130720638, 0.15078568576853926, 1.7034348056840352, 0.455834272685332, -1.6820042684908056, -0.10866155876315681, 0.217961555649103, 0.41630032870326533, 2.0906081238486003, -0.19405898775500588, -1.8179721037857863, 0.37171887076251553, -1.4264283498284815, 0.46625402214497724, -0.21576364312788535, 0.6196630080942525, 0.2388144675269451, 1.0296335224699091, 1.2001593972180482, 1.6487232717847136, -0.32027314017492015, -0.19353119664139762, 0.12224867099755486, -0.07078424766414056, 0.6935794413585102, -0.5916555828807785, 1.1851370582080119, -0.940495532223314, 0.3255850205872519, -0.1400564052129502, -0.19587405291731266, -1.2098876884962175, -0.6517331195863857, -1.3355589304436497, 0.5917123016737037, -1.0049223433867125, 0.7412469621926054, 0.20293127113495885, -2.1692965420457937, -1.1939830462627563, -0.9022183765633904, -0.9212068438874046, 0.22488048684741674, 0.2910112627013412, -0.2046424021151043, -0.04457299139485673, 3.2277424841763134, -0.1863349099453837, -0.7850030937378121, -0.14152609943431574, 1.638712436973371, 0.2517601967767812, -0.4857228255632496, -1.0358445047009857, 0.8270519155234207, 0.6645156409712388, 0.032773720156535305, -0.21238253911147348, 0.12549196732197, -1.690277581388947, -1.3520324536125734, -0.1606036728696996, 1.321784018086436, 1.938919602667673, 2.7246167663282685, 2.652036379797265, -1.1380752044708875, -0.6302266549840988, 0.7617932030257356, -0.3999941024382421, 1.205189970357375, 1.5286058593707408, 0.9249896276738057, 0.5381853725647042, 3.7378158300754523, 0.9540023359946476, 1.4869779157473315, 1.2041522613475955, 0.1701571669757204, 2.162775132331288, 1.3829639920995858, -0.16818666726415835, 0.011586332043071728, 0.3986158532316285, 0.677949049521162, 2.4571720307207627, 1.9989266281968796, 1.1678063519086528, 4.208484487561906, 4.179917083021912, 2.8614467237947627, 4.095468207407271, 3.0434153034214715, 3.5096153597318342, 2.6770543014549584, 1.2332205134164234, 1.4714253527140957, 0.8948047060035428, 1.7783921442107058, -0.4007442413044351, 0.5595746675428238, -1.1940616395665844, 2.126588646246999, 0.10701560053468073, -0.12537012345643095, 2.0781650283868456, 1.71964379853991, 0.24101170532034136, -1.0140577294394275, -0.04073063045881689, 1.3672114350958853, 1.750929506929227, 2.0683899966547417, 4.395142460325496, 5.778852245307561, 7.3721147353734855, 5.101048591431079, 4.965427541756733, 5.015398591546424, 1.6516805132395942, 2.14277464072047, 2.4733404418673413, 1.536121326164262, 2.119966422319521, 0.4290126018945945, 0.5950370812204289, 1.5726203317096261, 2.075685135354692, 1.1059182977843163, 1.6887145407924302, -0.09576666451817653, -0.0740547111008594, -0.306604113648165, -2.080987367804884, -0.36819548793866985, -0.03688067311064564, 1.6249211068675746, 2.7843917212939284, 0.24322860929067816, 0.10387502742755152, 3.7280661167129594, 4.490298158555101, 5.992993390965446, 3.3637199902771, 3.704008947306604, -0.09042780089607551, 0.6642979204623812, 0.7973097523446735, 1.2636232931312033, 0.4426417592848529, 0.6285127420718644, 0.26944212062596096, 0.8132442972428792, -1.0473225388290306, 0.007411238917964302, 0.16506610933750093, 0.18618319140253248, 0.20740954374948842, -1.788658499791246, -3.186800682709947, -1.105823559841469, -0.0013314778397228774, -1.8719166363827047, 0.7954252280035655, -0.7035842056476229, -1.0522101669575348, 2.3404297857448566, 1.713097002230865, 2.5475633063480223, 3.105392268606672, 1.1754613678651544, 0.9043737047478196, -0.02363014036444143, -0.6730832444798381, -1.5272851024914593, 0.2614312171717613, -0.8538566919518414, 0.08211780754289759, 0.5237614712423669, 0.9037916430611178, -0.36282129017693754, 2.4193949988166117, 1.2150949408461638, 1.6235963107244364, -0.2159290289886356, -0.28810585295922764, -0.00434647666980353, -2.9145423930572667, -0.9166946787494437, -1.4663962616968012, 0.12078840614234126, -0.2777433140326023, 0.08178570289736098, -0.4084409146005642, 0.4860169184642998, 2.674588631939186, -0.1205560653967046, -1.0938047903808268, -2.554883682166655, -0.938674605093486, -2.036039127478918, -0.6820267375648522, -0.24513685044321895, -0.33727985328403814, 0.3475644116375677, 0.587817124042484, 0.24201506623601768, 0.3341306598028046, -0.39028865708629906, 1.3490397645525205, -0.5720585015350372, -0.14435349646122853, -1.9054309823648574, 0.5338285143680693, -0.3433173862774711, -0.5727644271506526, -2.5426205221837535, 0.5752979145168615, -1.6084551649543959, 1.1592236841954333, -0.7241154411476974, 0.20436615080998263, -0.3499659561251305, -1.2125073349206021, 1.5062874193763636, 0.48183646497271093, -0.3059946678750872, -0.4963888737167059, -1.6690836270072094, -1.3832651347971912, -1.4259258217730775, -1.8759001846378505, -1.9812568447124002, 1.0648974725259643, -0.9807098868209535, 0.5196612357944134, 0.4861348850425756, -0.053766535915809814, -0.16971399122467798, -0.002454963786153411, 1.6541945033187455, 0.36699549803031617, -0.8158250492300304, -1.5483262350767397, 0.21831724550575846, -0.28200689817052804, -1.5165769374245808, -0.23341463721036512, -1.4713295814844005, 0.6321395032985624, 0.7746322031462589, 0.10807614207902859, -0.5067710931249936, -1.3232075774649388, -0.6019116548064446, 0.3881413176989852, -1.1676976969780264, -1.336848033547958, -1.2498325404898156, -1.7230887443558143, -0.574843313961765, -1.6753340489900184, -0.5678691776145112, 0.6493153466019739, -0.03252955288737671, 1.4209101411542875, 1.273024416298554, 1.7299208078776358, -0.14417355163107615, -0.5881361384768796, -1.582053239845059, -3.433656590192121, -1.6015531754231613, -1.901174958573433, -1.589272006966845, 1.0530778532792893, -0.7160364507082642, 0.48867494284313445, 0.4191204352164347, 1.2902459176483554, 0.2980788984402013, -1.7419926181037426, -1.5542431806932135, -0.527624201042695, -1.3345793235228838, -1.3876357171963996, -1.2090904672084786, -1.3218977667982543, -0.8602069472194853, 0.077418022011116, -0.3892147748465177, -0.5299123369255839, 0.37054662317146075, 0.7272685747367064, 0.5300271709030931, -1.0654912423571767, -0.8109836235126697, 1.5217276776711086, -3.565007146814243, -2.3081028269442028, -0.6165870656297676, 0.597962313193954, -1.9426699304738253, 0.13322744309375303, 1.9872513456918817, -1.1486444548953205, -2.8022890689891398, 0.5175413097278777, 0.78273023104949, -0.46346152032041876, -0.19941505617903516, -0.505197257803063, -0.6183324438316977, -0.3628543468873645, -1.3796357952221157, -1.1094673655134697, -0.269948707609319, 0.4657349752536647, 1.2284077378529432, -0.28012925465997607, -0.6221734930023652, 2.5144349758891296, -0.2632351701299292, -1.2072101751387019, 0.5200482983364761, -1.1579618892711097, -1.3317300470860056, -2.0209119032069487, 0.9207339549708567, -0.48415575795007765, -1.1386305529310876, 1.4453999286402794, 0.3463606257994276, 0.1723177461532732, -1.62197668787426, 0.5928227558891622, 0.28395195879746354, 0.004195155868385924, 1.3515693301422111, 2.2610839314193054, -1.6876121160483963, -0.4406791122626227, -0.46614338889955714, -1.2268819488612355, -0.8114289258844787, -0.31332926980341536, 0.6660441457904417, 0.27378474571452527, -0.5965388843333403, -1.6320172952148788, -1.1726653045795594, 1.522056475558741, -0.32444484837351467, -0.17957712847881857, 0.8516759596251221, 1.7647464532003938, 1.3059585712320971, 0.8604227429629544, 0.8828753548461543, -2.3014025749810054, -2.126643905658295, -0.16613844341170567, 0.21747138651069775, 0.3596989943692341, -0.22124834984681416, -0.8945891999034149, -0.33020488898370426, -0.6846801987017743, 0.550525607626656, 0.34740904659026334, -0.8997531507976491, 0.8135479915359549, 0.44376043880552635, -0.6225019892152861, 0.7768583869613088, -0.33595315131382253, -0.8182662549532382, 0.5111726474171306, -0.3280959093009253, -1.3348788677849848, 0.22248914500703745, -0.731365342143131, -0.4865739445623592, 1.6965337401630671, -1.6170626346669406, -1.3433457099421446, -1.3268125366064893, 0.1392105400377436, 0.17217097419164532, -0.7546881683582092, 0.6953239292245692, -0.6022915253656459, -0.4565706236106787, -1.3998585803684431, 0.4291875668829063, 0.20635398529296653, -0.6713859826016413, -0.24250415930125585, 0.34488864404577024, -0.19368655599534498, -0.057935503563075905, -0.24325834682115455, 0.6502475453746318, 0.09631216979047529, 1.3170718970294035, 0.0677604902075597, -0.10667407179681469, 1.563618972295984, -0.6052354258623661, -0.12356106174731858, -0.4585475839656248, -0.46944113009231303, 0.6739071290383769, -1.3988018188187543, 0.029059373666321706, -1.238827025412158, -0.5241405813402601, 0.36234466747194777, -1.0129015258852523, 2.05284726339616, -0.3999818236864166, 1.7712776717405834, 0.8183624513960288, 1.834539829681436, 0.5404274601647145, 2.3796447050477436, -0.3908659204523534, 0.7984478605495093, 0.39910316248145344, -0.12210973299358534, -1.489190421325776, 1.6305972914960594, -0.4308063383966879, -0.6762933818045584, -0.11511596957891589, -0.24876562917222703, -0.02963702839243057, 0.8022222628314274, -2.130531393855581, 0.9927613306068066, -1.2997688872485258, 1.6389449143784949, -0.43065872760475193, -1.258338439650134, 0.5411083593734192, 1.3915870798594727, -1.939207410287423, 0.39668644624279453, -0.22765473384860982, 0.16293786458497284, -0.6127661437885572, -1.4439563621355667, -1.7788384253144984, 1.0268881158972678, 0.05449020046653693, -1.0552844220519022, -1.5569442818239054, -0.3046395841579643, -0.008033860161731467, 0.4885672572905106, 1.927463691246236, 1.0257947737516455, 2.0932631408178097, 0.9946443370759969, 1.9578474202598777, 0.41030386415869563, -0.41136364475851805, -0.23109917986163173, -1.247468543623057, 1.5333058148537235, 0.14866687474615267, -0.10185466881712274, -1.69177971028236, -0.9094968408398911, -0.11010337708600587, -0.9300212783783575, -0.4191379150311172, 0.46100824459722933, -0.1813640306071807, 0.003821906551870259, 0.3698835207759476, -1.2360098871747838, -0.4138259975093154, -0.2937113494623379, 0.34505473408576726, -0.38591111233469766, 0.6724924375072355, -2.046286319042598, -1.4011490978033898, -0.2563007921119863, -0.30573172610462385, -0.32732708112207654, -0.06422889684994712, 0.3483932526188465, 0.27548426601970577, 0.38747391333020553, -1.123176439534255, 0.2405699747947459, 0.4038474773922316, -0.9588436101665734, -1.1390208380938533, 1.0217181213749735, 0.4439296424293907, -1.7402344390556035, 1.533072467083249, 0.5736134186521912, 1.4082906608774657, -0.270479551420741, -1.8282023581861264, 0.3459417515722769, 0.8111541443855277, 0.5269321797344427, -1.1126037220597014, -1.078474737993922, -0.3121114312759886, -0.5321512601320277, -0.8011259310188539, 0.07778647636840542, -1.9954477822513845, -0.18898551493171772, 0.2813662645058765, 0.3874616885500231, -0.03800010377354626, 0.4036225012442457, -2.148525197852401, -0.8380535807771504, -0.6299519265864797], [0.6041233148623275, -0.8241717788004744, 0.6225734380316995, 0.6703583706960212, -0.17556351325991307, -0.29026940572898735, 0.06370860317035297, 0.6844124541590748, 0.4192315489909171, -5.0747373111164774e-05, -1.1496121920611682, -0.022606155830867683, -0.7782823246572224, -0.37350436446707774, 1.0286969127961958, 0.8954678855474629, -0.3975704972982021, -0.8222205684500961, -2.0467229012837795, -0.4444091284261122, 0.365071469729558, 0.14640785744252746, 0.3880536814309705, 1.8204895318471417, -0.8715075881454224, 0.46585989917839943, -0.11808753385025608, 0.9384751406534955, 0.07915769281205794, -0.37296138521958555, 0.260275982927228, 0.007260361068776098, 0.7256100024426664, 0.31738788644310456, -0.8300464673212297, -0.13189027250196486, -0.49320794130998263, 1.0760791471857187, -1.043571841931284, 1.2878141634900586, 0.7847116661404774, -0.2536513502299065, -0.8190240735272374, -1.0490655376880922, -0.04702790773681415, 1.7731768017089589, 0.01530215933390002, 1.0725068719283983, -0.9540301045273154, -0.29391637659919684, -0.3827801608328887, 1.3609906838491501, 0.1498442000896505, -0.03462503241063702, 1.4128080967051235, -2.282175459689355, 0.4583712832972441, -0.8563069618064432, -0.6644987423019532, -2.223851543541722, -0.6673898283146351, -1.1728957010667336, -0.658621528386623, 0.8840679523715961, 0.21154914605602917, 0.6981218469293048, 0.2716625285110278, 0.897989280064476, 0.3748913989830635, 0.6663189489097827, 0.18793924100026044, 0.038446655572867076, 0.37308164312233744, -0.8883813466964661, -1.1539729876146334, 0.09628518024718918, 1.1838278544775245, -0.06537576836424204, -1.0156932629779247, 0.23984005845781559, 1.4040764183713323, -0.5476840731009855, 0.28847110717247654, -0.5672859329146439, -0.4269839678014052, -0.44219843698934597, 0.6576191445706597, 1.5285746730406076, -2.42777875752543, -0.5814830954688317, 0.7823951985562699, 0.5221202989123039, -0.3245200564345817, 0.2182973848152121, 0.5503306052638021, 0.24183140413648344, 1.4331492754980308, 1.3833581053635935, 1.4661607893883524, 1.3754803137519533, -0.01712273327517557, 1.6977844145239864, -1.2357971263646692, 1.612651289593951, 0.7337605536589001, 1.3206271406184313, 0.546980064052018, -0.45515592049153003, 1.0037940105523497, -0.6707353241877894, 1.2277999710589442, 1.69023059168132, -0.22233624945895658, 0.05329979883514539, -0.42056576948664115, -2.4705108434235843, 0.5100282639979535, 0.06141665756065282, -0.273152932962656, -1.3201089552958984, 0.8461528060595629, 0.28470014769275664, 0.4620879244438521, 0.9027664622044792, -0.5316761555297168, 1.4986784830397264, 0.6142525206248999, 0.5070458434804184, 0.44869438517238547, 0.3236640600859235, 0.1154146074139303, -0.6362055208048943, -0.5092081781369732, -0.14748026102574152, -1.012072450434715, 0.0013502773498197916, -1.3205854567384763, -0.8635596316611772, 0.3570317259021642, 1.194918008915686, 1.2792319635891671, 1.0391002473749802, -1.2692918350543125, -0.07475071681815426, -0.13888666257572, 0.31687361786625645, -0.3988601820249842, -0.5829039787925607, -0.6815640591802778, 0.48747328637527076, 2.309661672814849, -0.9123504721483474, -0.37179289246931285, 0.30787324087391765, 1.6366130755370876, -0.16977627342956897, -0.4680565967046856, 0.85728232644337, 2.3364992986916038, 2.478195024275845, 1.9501278618163376, 2.1398665207143974, 0.9077931315966623, -0.14137955958890416, 0.7301826795524672, 0.4556740449195728, 1.5557653911075597, 0.09343610809897908, -1.5141791482149773, -0.23502451652037123, 0.868948263802473, -0.5503701168045158, -0.32445697609689056, 1.0843289330516825, 2.233152778330213, 0.10857357759169754, -2.1182720806274253, -0.981654658257113, 1.3090222569869425, 1.3833229430968161, 1.396743392543421, 0.6677739141899611, 1.4008482922710637, -0.24734677160965862, -0.3216623450406096, -1.4549396621413653, 1.538007876789611, 0.08889876240577972, 0.41599879876954626, -0.5017652373530379, 0.3810945414870338, -1.662045688067019, 0.3499140710176758, -0.11520558916716017, -0.7719796557533761, 0.35345528225663286, -0.7910711870120732, 0.39706435192396444, -0.30306925111020094, -0.20151738324222346, -0.6788986793937479, -1.1921771705880457, 1.897688435798034, 0.9141885464466143, 1.2138522594840473, 0.36014735894808814, -0.4853512534596233, 0.393339616258344, -0.7136426806604449, 0.28844865834321287, -1.491584248315512, -0.6699575166364516, 0.0614501269879694, 1.6748312647216819, 0.4922874243011167, -0.29636135663419266, -0.41593820538669396, -0.7257543394833729, -0.37880380837415434, 1.0312274223661055, 0.1579572200184035, -1.4334005098647449, 0.738327330096223, 0.3466581307217097, -0.08645399096076964, -0.42976674699046286, 0.5874355451866579, -0.9530638024461004, 0.17521610998673193, -0.502965536662757, -1.3239366639810253, -1.1442112028709917, 0.2838480289851543, 0.3582868615261442, 1.4228032886809427, 0.7547066696259439, 1.0928295965257708, 0.8173078830354856, -0.22470203694362983, 0.5389960672255998, 0.6517283399101085, -2.712453852479688, -1.5146641793551345, -0.8909566542541734, -1.1820636491800611, -0.4498858610558568, 0.5074113350493432, -0.5091012716318921, 0.6956710199402811, -0.6310521981432708, 0.8516971080114386, 0.71364937826304, -1.0007369596373914, 1.1896135086436241, -0.04390502703397738, 0.3688671346958031, 0.38169828833286884, 1.556163888240992, 1.1711061408189858, 0.47296867723425573, 0.03530009191529846, -0.0338975201998165, -0.6504423393147128, -0.8025091260205932, 0.8739813189168774, 1.0650354249050051, -0.2490312070695697, -1.604911562345036, -0.7802299029193076, -0.17275686458414277, -0.9600560260897333, -1.8412656887663827, 0.14622715633636799, -1.4991171296973214, 0.6701700651056185, -1.010581694310622, -0.3208922634406768, -3.568775229839897, -0.6725432942234024, -1.2170925655551024, -0.31811439831027005, 1.8544905212598262, 0.18182114845259192, 1.71842079837491, 1.2112918317047927, 0.7834755925249903, 0.6664094232466558, -0.09007785672397725, 0.6941542261758327, 0.6148497700466452, -0.5903824649079693, -0.3270906793401664, 1.269124417318314, -0.07687545194372891, 0.2181203808846447, -2.177183948514975, -2.69251174812403, -0.42169711738378546, -2.3113169294250153, 0.17681387157013068, -1.5256223721063538, -0.12055098402981346, 0.11057824668303173, -0.9198877164602692, -2.014249488740234, -0.8186920086545527, -1.7029084901993632, 0.8687010187986819, 1.1028220769581132, -1.7564550667732426, 0.4198743179900002, 0.5774739080732179, 0.5612525129283433, -0.7708000996129931, -0.44504312630740783, 0.006684819082486197, 0.4559068267951991, 0.5010279752495043, 0.21552269406344224, 1.5376368512524476, -0.036788306435278126, -0.030262527088882524, -0.8750954314404696, -0.2877509773403362, -1.1099880156038047, -0.6900141332871426, -0.5650001166356183, 0.6357020647559252, -0.10493274168751417, -0.5174486673714098, 1.4016957287390994, 0.263167356033869, -0.4924020375685371, -1.253320976054383, 2.420331699606386, 1.3678164910277997, -0.9992669561119449, 1.084929420708525, 0.14548083444730203, 0.33255676900568115, -0.5513643239810454, 0.16709858075772457, 0.13611200539973395, -0.5648645115192548, 0.5035159111426182, 0.021660315590885496, -1.2109390104621656, -0.7712364625420054, -0.5492997075707915, -0.5402550514620189, -0.6818008658333039, 0.5992408912603732, 0.6167995503288721, 2.4203276180575104, 1.6332629787627329, 1.9166776060811548, 1.5438190968102605, -0.24573904520850684, 3.017738055823141, 2.2391286480823864, 1.480780955489899, 0.19178243128752148, -0.8832682247645096, -0.6250334424393155, -1.355102286795502, 1.0193192654061844, -1.0099153537191279, -2.40598080064704, 0.5772960926927999, 0.7975094744560882, 0.19192915471103475, -1.8097280105510452, 0.4226449093144008, 0.28044935420453143, -0.41173432063501025, 0.3856585614982195, 0.4167706939408945, -0.28763472419640823, -0.04700566149233406, -0.6313463336893376, 1.6460886679393871, 0.2588099080169382, 0.06980714415188481, 1.1748776276068265, 1.69516335468823, 2.234099158082458, 2.7503692839739884, 0.26298611730951876, -0.499274679478214, -1.1999947108530706, 1.1452874632887762, 0.18724048466176385, -0.713597128671325, 1.4745725561547738, 1.031421261201742, -0.33021523735963637, -1.3630142840912478, 0.9628768392419708, 1.0844108245791622, 0.3893416137779584, -0.18267929676521938, 1.0100886412111614, -0.1257137908123405, 0.7633967415225547, -1.8951989423259268, -0.19165932009243897, 1.4686017333696761, 0.034511243179738714, 0.12306761037109429, 2.1092996757867173, 0.43827171123265085, -0.32145220848266276, 0.8488040852037645, 1.7293730347871579, 1.917056790098031, 0.22392041451518585, 1.0394736933545334, 0.6059880120291821, -0.08129600973002908, -1.0023006348435126, 0.3870701957383098, -0.8653908745736615, -0.22629798390377198, -0.0945861194905912, -0.4459301297558422, -1.2415806834681622, 1.726186314530295, 0.3165395171910435, -0.45501823968443816, -0.4938382358843631, 1.1883562256449722, -1.55163766115767, -0.5055344436322422, 0.528107870324842, 1.1416608211755666, -2.0971952779172622, -0.9334328443879378, -1.7313715990191736, 0.8630812702773415, 1.5671742763559524, 1.299612924333698, -0.7915667650689322, -0.25362164623478334, -1.1121689466412645, -0.8873084448847804, -0.7698429699784326, -0.3452417849210991, 1.4583018661998517, 0.7978223347770075, -0.43821037576907207, -1.2696249687871075, 1.5725493668426693, 2.0358650422096645, -0.16706452173004227, 1.02670647895224, 0.2637388450719535, 0.8684991819767021, 1.1767103779095236, 0.972428978096758, 0.5912134348080093, -0.538107620943288, 0.35951033656769155, 0.42174326559154457, -1.340218308772733, -0.7770470037640631, -0.09982747501284363, -1.3267353258539938, 1.0979510808364414, -0.7409423293355927, -1.3617057098716363, 2.0400769197714363, 0.945556952668633, -1.557228428884038, -0.28399746663986297, -1.0019725336089007, -0.7897051288621114, -0.8417841343219437, -0.5737827365791774, 0.994031622671853, 0.9925885966032486, 0.6918364321531361, -0.30369349349923114, -0.4663132771939237, 1.0095589951056367, -0.047332965223152286, 0.14781271459497602, 0.9762353042614372, 2.3450113542290683, 0.4503625181552296, -1.6792517112317016, 0.5259080262479583, 0.18478992871279934, 0.09586076214519684, -1.267822475075725, -0.10105731845770538, 1.4832748726796599, 0.41991137359638353, 2.4270572836068163, -0.22885045022898712, 0.4203368919873831, 1.9339723064407688, -0.45967781331184987, -0.11145029794580565, -2.0096619559266764, 0.04588677493155963, -0.8910565429546583, -0.9276740914108268, -0.09304410877903387, 0.7142079917716518, 0.40459818790784596, 0.7626224651679822, -0.6270511126985786, 0.2572734589999909, 1.5859226570258353, -0.039296895436388944, 0.7868811084385776, -0.9148068040176781, -0.9239190107480167, 1.669715931712494, -0.37629161888766477, 2.2728241099839894, 1.9293388589165834, 2.4286938500463546, 2.1538430116833855, -0.026709910618376312, -0.464561312360669, -1.1676813777716293, 0.331411203454084, 1.3317058762090652, 0.07119160222954685, -1.0639216467328745, 0.19617483588661508, 0.7243498413021499, 0.30899500269509644, 0.05948327315596706, -0.80869503153411, -0.8421866341163946, -0.05081471194031806, 1.8035089021060826, -1.5287235888443607, 1.6827723513245103, -0.30013748344638524, -0.5419522075755525, -0.853111172415289, -0.41468773757437594, -1.1001528119561375, 0.932117779303955, 0.44096628737805266, -0.33118695716556584, 0.7896163137282133, -0.13390720827538244, -1.015086555911903, 1.0226398468224172, 1.8782922729506661, -0.08030554001278045, -0.2483432756335622, 0.3173596972007524, 0.5327393334041564, 0.7829006113263287, 0.8808054827677827, -1.6263309900972978, 0.39933101772164076, -1.9527864321639685, -0.21906358354970396, -0.13810286590760054, 1.4298638547239693, 1.72124049195541, 1.8713671841682005, 1.7427190506008394, 1.6565783923122575, -0.9215713286234121, -0.5443107619118811, -2.0038081352920436, -1.1939875108314986, 1.7396421414433862, 2.4750621699305175, 0.21220803573910446, 0.5810847069947589, 0.9224383529119354, 0.8613524879906621, 0.3005587350436796, 1.8310727470417685, -0.7172020386100795, 1.7610261709864545, 0.7013949946499657, -0.814767272300881, 1.7452073774401826, 0.879067370625662, -0.5801392633764212, -0.27342435117676783, -1.271934269051749, 1.8867258978704367, 1.0817493054442304, -0.28325550224903345, 1.8017270867847974, -0.5345950143738084, -1.0134664495031818, 0.040679542576496634, -1.2636829799973097, 1.250838148499523, -1.9018440063897455, 1.9416696244548637, 1.0060075593059135, 0.2444698653383029, 2.7446711807066215, 0.39722606802745186, -1.3824844899184847, 1.3508731042916187, -0.7380376506006016, 0.08580561781210956, -0.5103526811140818, -0.9125169651368793, -0.7965380632948713, 0.9188376884514232, -0.4500531890298065, 0.9174630979401471, -0.5589109207667545, -0.561605886013554, -0.4168406527989607, 1.9494639613804754, 0.25266899954481015, -0.45564826796059277, -0.8624476634316853, -1.4545754562545403, -0.777432572531574, 0.21482656415950266, -0.2065215565324707, -0.5747944250845947, -1.648161854654279, 0.5172741365154614, 0.36996087944990214, 2.4908470343148728, 0.953395025990354, -0.7256513421558662, 1.8039681389167324, 1.1237430272724254, -0.09680858719838173, 0.5442582806909257, 0.4726093679987283, -0.5691581338968411, -0.7413464725311719, -0.1402602478861455, -1.248939057645338, -0.6160844793216546, 1.9671506841251154, -1.0530968459480075, -1.4478431164901422, -0.10273728780515776, -0.4203155027225062, -2.0489442843813346, -0.955508476936567, 1.0655540019169432, 0.35908737922173556, 0.9840813897867315, 1.5929775727833562, 0.44269267922109934, 1.1616128302250506, 1.24082503180279, 1.7772878384448005, 1.8338715387261233, 1.8700800672071791, 1.7237188311067562, 1.6110520444257046, -0.9845469882984542, 0.03332338835929412, -0.6712584336765134, 0.7052364849201695, -1.574595858943541, -0.02207798269057665, -0.20862212185065201, -0.0137469988979661, -1.3645592325905491, -0.3620340985601843, -1.814197999993067, 1.9729712931485435, 0.2501086007269014, -1.6663042363758978, 0.2361794016430904, -1.7908438434799074, -0.9006953876609245, 0.025081216606252878, -3.714022203997643, -0.4801696201917472, 0.9876171987124233, 1.159943691057963, 0.7285158943188059, -0.758409101545048, 1.4815639598055907, 1.1086974687977962, 0.6576476939160496, 0.0799477867508287, 3.0133948443185608, -0.13455210891619052, -0.3010581171785594, -0.3776742309385695, 1.1212039558076483, -0.6791049485569655, 1.8872365401870552, 0.293066424293627, -0.5568064145313778, 0.0929056092753485, -1.261140317448036, 1.0793893086492587, 0.5906815998886676, 0.6595685736842962, -1.9029110754142822, 1.7110750019766934, -1.7724503057214414, 0.9074570618923722, -0.30623157183112265, -0.0501500779067482, 1.7159682570208619, -0.5444014627338434, 1.2599794335863397, 1.5728560814050667, 0.6397347652432614, 0.20913229753416712, 0.9575961592535365, -1.5092193900415816, 0.516604413493928, 0.20332709534384602, -0.21704372368152255, -0.2480672209073936, 1.4008186825564166, 0.909660650128387, 0.5265805480349625, 0.09353305483395792, 0.4379153544402509, 0.9892941625600113, -0.5693261212517136, 1.2810951230857885, 0.6276901564982073, -0.5900710949613464, 0.22406471649557802, -1.1688782759572365, 0.5550082543316541, 0.42905920684729953, 1.2572159384042292, -0.5881936436004291, -0.1248806948187938, 1.0207334258808745, 0.5788910689209833, 0.1411667918896754, 0.3087353276589623, 1.9088976567700695, 0.6569303743681815, -0.025687512850942878, -1.391739673021137, -2.4195784616556826, 0.750819022497611, 0.16469664500135472, 0.9083449703714842, 0.4542314292533933, 1.1923409905799005, 0.1374354227917723, -0.5440622043988524, 0.23386297781032744, 0.33353813702800705, -1.2013245615369683, -0.007821969224854215, -1.0838758301207008, 0.6460171490723788, 0.9341471588053045, -0.7144515813415917, -0.04354079938004757, -0.4030254156244663, -0.14187701178459028, -0.829867758054004, -0.08925422951084981, -1.148402141948147, -1.3657122410005795, -1.0643284505511126, 0.6131083194389064, 1.7694022129635554, -1.3713061115650773, 1.3858757664712738, 0.06870619306313555, -1.16639116733337, 0.5527860275263092, 0.5979196645785616, -1.1524071570876524, 0.10610086505009407, -0.6699558122692165, 0.5607571218387619], [-0.4466406974661572, 0.5870919001723255, -0.7149398253757667, -0.5491074733066661, -0.6605338020403774, 0.3020141435382395, -0.05014250249500973, 2.0400024760554705, 0.5778941082494466, -0.09561536678204646, -1.6339471917850916, -0.036853179638030524, 1.1392759837640754, 0.4119865301948688, 0.09948399599647541, 2.4134462135946197, -1.03452045072981, 0.6155060287533234, 0.1733080961588526, 0.8724788575605433, 0.24509456882388678, 0.7317747064558985, -1.2139307844541578, -0.7996247926235341, -0.6370113965075777, 0.43790993341441947, -2.5288771729918227, 0.8689630378591788, -0.12566859742832856, -0.15086080221480197, -1.1041182217288192, 0.5570628993515516, 0.06583462913523415, 1.5651589143665299, 0.2511658141267887, 0.7524702289626228, -0.6970396602479901, 1.7596314168843235, 1.1274907779354228, -2.484166249174392, 0.14021566097623864, -0.08120121526696718, 1.008553437008161, 0.6242236803462665, -1.122563656076935, 0.10567021506852346, 1.3256812667967373, 0.5555066179827874, -0.08346026066243555, 1.2208744763373396, -1.5566387336725949, -0.8087518246388973, -0.2597186254597112, 1.357869507420917, 0.5750036214394189, 1.2028511410000373, 0.1165727073307024, -0.6170859379244344, -1.1478919037805633, -1.1546820613402682, 0.6217112855584471, -2.1814278636175213, -1.6090432341429886, -0.8637077118099061, -0.509008484783432, -0.40994130900982584, -0.028144721928669757, -0.3060651116111708, 0.3451874144541064, -0.6703428074827239, -0.26146979202894893, 1.554081238469263, 0.39611902081257766, 0.1551869148589718, 0.26608948826979295, 0.5193948423473479, 0.010207182478332256, -1.5981998513016102, -1.7163619861712707, 0.3775839685689034, 1.2382678653900057, 2.302832529250221, 0.46406734482668144, -0.40887371588586013, 2.007291094092422, -0.1242778057134163, 0.33406550246907984, -1.5120126385225223, -1.7544687788902658, -1.007382366578183, 0.832042754680783, 0.8268023081847824, -1.110114526996333, 0.35090789952785945, 1.5424528736585907, 2.4645204564854937, 1.5593126481258248, 1.3887565828466693, 1.2862543050675237, 0.44925117711950885, -1.0834879904211014, -0.5765653352400864, -1.0592062827597222, 1.0162050242686376, 0.20682805099498006, 4.236072284358163, 2.0741255062239037, -0.22047347884742258, 2.3429613629154504, -0.9049435803315531, 0.773088057700688, -0.04307781085195446, 2.0132285594111163, 2.133489197039874, -0.7957886289340615, 0.6828246521248736, 0.5700172801055041, -0.20656069479858052, 2.077784541571189, 0.9585259461507855, -0.9282759707979763, -1.774552290951897, 1.9741012186581415, -0.011997321022343667, -0.025437821160263715, -1.8846577064734702, 0.7860669939502395, -1.3955712485195293, -0.9465243815403213, -0.2858613286901472, -0.29917006180924527, -0.05412337862616221, 0.23271393852059027, 1.2586604605660412, 1.6151286630447095, 0.02686070038612812, 0.5781966393845953, -0.7807529008135313, -1.1645559618618797, 1.0126683795743345, -0.25446957306441115, -0.9641291703942048, -0.6525061445950813, -1.1183766382842342, -1.0171200210886058, -0.8178442236236216, 0.2895856446980597, -1.1111213790704717, 0.49141703004453374, -0.3788275279978854, -0.42247424353296503, -0.5855852049682122, -0.3543399559834923, 